{"learner":{"attributes":{"scikit_learn":"{\"_estimator_type\": \"regressor\"}"},"feature_names":["gust","surf_min","surf_max","speed","direction","pressure","temperature","power","directionType_Offshore","directionType_Onshore"],"feature_types":["float","float","float","float","float","int","float","float","i","i"],"gradient_booster":{"model":{"gbtree_model_param":{"num_parallel_tree":"1","num_trees":"60"},"iteration_indptr":[0,1,2,3,4,5,6,7,8,9,10,11,12,13,14,15,16,17,18,19,20,21,22,23,24,25,26,27,28,29,30,31,32,33,34,35,36,37,38,39,40,41,42,43,44,45,46,47,48,49,50,51,52,53,54,55,56,57,58,59,60],"tree_info":[0,0,0,0,0,0,0,0,0,0,0,0,0,0,0,0,0,0,0,0,0,0,0,0,0,0,0,0,0,0,0,0,0,0,0,0,0,0,0,0,0,0,0,0,0,0,0,0,0,0,0,0,0,0,0,0,0,0,0,0],"trees":[{"base_weights":[2.4583605E-7,2.1788757E0,-1.5235744E0,2.6311266E0,1.3542562E0,-1.561967E0,6.6076404E-1,3.107576E0,1.9513506E0,8.297094E-1,2.290495E0,-7.6113975E-1,-1.674712E0,-2.5177078E-2,6.482292E-2,1.4174393E-1,7.001459E-2,4.689758E-2,9.654298E-2,4.0792976E-2,1.5981492E-2,5.2077383E-2,1.2248265E-1,1.30500095E-2,-4.380505E-2,-6.832063E-2,-2.4283325E-2],"categories":[],"categories_nodes":[],"categories_segments":[],"categories_sizes":[],"default_left":[0,0,0,0,0,0,0,0,0,0,0,0,0,0,0,0,0,0,0,0,0,0,0,0,0,0,0],"id":0,"left_children":[1,3,5,7,9,11,13,15,17,19,21,23,25,-1,-1,-1,-1,-1,-1,-1,-1,-1,-1,-1,-1,-1,-1],"loss_changes":[7.502475E2,3.1119751E1,1.2185822E1,1.3044861E1,1.5288094E1,1.0553192E1,4.735043E0,1.3325958E1,6.891083E0,1.555315E0,5.1663284E0,6.894409E0,3.0164795E0,0E0,0E0,0E0,0E0,0E0,0E0,0E0,0E0,0E0,0E0,0E0,0E0,0E0,0E0],"parents":[2147483647,0,0,1,1,2,2,3,3,4,4,5,5,6,6,7,7,8,8,9,9,10,10,11,11,12,12],"right_children":[2,4,6,8,10,12,14,16,18,20,22,24,26,-1,-1,-1,-1,-1,-1,-1,-1,-1,-1,-1,-1,-1,-1],"split_conditions":[1.017E3,2.895734E2,2.2698938E3,2.8151334E2,2.62368E1,7.97704E0,3.348788E1,1.18824E1,3.6517612E2,1.014E3,3.0403732E2,9E-1,5.053651E1,-2.5177078E-2,6.482292E-2,1.4174393E-1,7.001459E-2,4.689758E-2,9.654298E-2,4.0792976E-2,1.5981492E-2,5.2077383E-2,1.2248265E-1,1.30500095E-2,-4.380505E-2,-6.832063E-2,-2.4283325E-2],"split_indices":[5,4,7,7,6,0,0,3,7,5,4,1,3,0,0,0,0,0,0,0,0,0,0,0,0,0,0],"split_type":[0,0,0,0,0,0,0,0,0,0,0,0,0,0,0,0,0,0,0,0,0,0,0,0,0,0,0],"sum_hessian":[2.24E2,9.2E1,1.32E2,5.8E1,3.4E1,1.3E2,2E0,3.2E1,2.6E1,2.3E1,1.1E1,1.7E1,1.13E2,1E0,1E0,2.3E1,9E0,1.1E1,1.5E1,1.5E1,8E0,6E0,5E0,4E0,1.3E1,1.09E2,4E0],"tree_param":{"num_deleted":"0","num_feature":"10","num_nodes":"27","size_leaf_vector":"1"}},{"base_weights":[2.2347725E-3,2.0980275E0,-1.463261E0,2.5319018E0,1.3066953E0,-1.5004302E0,6.475487E-1,2.98969E0,1.8786088E0,7.988863E-1,2.213422E0,-7.3240274E-1,-1.6085361E0,-2.4673538E-2,6.352646E-2,1.3631043E-1,6.749405E-2,4.517799E-2,9.2922606E-2,-9.326286E-3,3.41558E-2,5.0291877E-2,1.183999E-1,1.2632408E-2,-4.2178E-2,-6.561267E-2,-2.3506254E-2],"categories":[],"categories_nodes":[],"categories_segments":[],"categories_sizes":[],"default_left":[0,0,0,0,0,0,0,0,0,0,0,0,0,0,0,0,0,0,0,0,0,0,0,0,0,0,0],"id":1,"left_children":[1,3,5,7,9,11,13,15,17,19,21,23,25,-1,-1,-1,-1,-1,-1,-1,-1,-1,-1,-1,-1,-1,-1],"loss_changes":[6.941294E2,2.86221E1,1.1406403E1,1.2028656E1,1.4347267E1,9.698608E0,4.547535E0,1.2217407E1,6.366356E0,1.5616045E0,4.8442383E0,6.409341E0,2.7347107E0,0E0,0E0,0E0,0E0,0E0,0E0,0E0,0E0,0E0,0E0,0E0,0E0,0E0,0E0],"parents":[2147483647,0,0,1,1,2,2,3,3,4,4,5,5,6,6,7,7,8,8,9,9,10,10,11,11,12,12],"right_children":[2,4,6,8,10,12,14,16,18,20,22,24,26,-1,-1,-1,-1,-1,-1,-1,-1,-1,-1,-1,-1,-1,-1],"split_conditions":[1.017E3,2.895734E2,2.2698938E3,2.8151334E2,2.62368E1,7.97704E0,3.348788E1,1.18824E1,3.6517612E2,9E-1,3.0403732E2,9E-1,5.053651E1,-2.4673538E-2,6.352646E-2,1.3631043E-1,6.749405E-2,4.517799E-2,9.2922606E-2,-9.326286E-3,3.41558E-2,5.0291877E-2,1.183999E-1,1.2632408E-2,-4.2178E-2,-6.561267E-2,-2.3506254E-2],"split_indices":[5,4,7,7,6,0,0,3,7,1,4,1,3,0,0,0,0,0,0,0,0,0,0,0,0,0,0],"split_type":[0,0,0,0,0,0,0,0,0,0,0,0,0,0,0,0,0,0,0,0,0,0,0,0,0,0,0],"sum_hessian":[2.24E2,9.2E1,1.32E2,5.8E1,3.4E1,1.3E2,2E0,3.2E1,2.6E1,2.3E1,1.1E1,1.7E1,1.13E2,1E0,1E0,2.3E1,9E0,1.1E1,1.5E1,1E0,2.2E1,6E0,5E0,4E0,1.3E1,1.09E2,4E0],"tree_param":{"num_deleted":"0","num_feature":"10","num_nodes":"27","size_leaf_vector":"1"}},{"base_weights":[4.1703796E-3,2.0198634E0,-1.4053305E0,2.4364207E0,1.2599567E0,-1.4413188E0,6.345978E-1,2.8762782E0,1.8085793E0,7.679654E-1,2.138943E0,-7.047479E-1,-1.5449762E0,-2.4180068E-2,6.2255934E-2,1.3108519E-1,6.506425E-2,4.3521445E-2,8.9438014E-2,3.8091082E-2,1.4198824E-2,4.8567582E-2,1.1445325E-1,1.2228171E-2,-4.0611386E-2,-6.301201E-2,-2.2754058E-2],"categories":[],"categories_nodes":[],"categories_segments":[],"categories_sizes":[],"default_left":[0,0,0,0,0,0,0,0,0,0,0,0,0,0,0,0,0,0,0,0,0,0,0,0,0,0,0],"id":2,"left_children":[1,3,5,7,9,11,13,15,17,19,21,23,25,-1,-1,-1,-1,-1,-1,-1,-1,-1,-1,-1,-1,-1,-1],"loss_changes":[6.420909E2,2.6368835E1,1.0678619E1,1.1091522E1,1.349324E1,8.9131775E0,4.3674536E0,1.1200195E1,5.881569E0,1.4888439E0,4.5421753E0,5.958461E0,2.478302E0,0E0,0E0,0E0,0E0,0E0,0E0,0E0,0E0,0E0,0E0,0E0,0E0,0E0,0E0],"parents":[2147483647,0,0,1,1,2,2,3,3,4,4,5,5,6,6,7,7,8,8,9,9,10,10,11,11,12,12],"right_children":[2,4,6,8,10,12,14,16,18,20,22,24,26,-1,-1,-1,-1,-1,-1,-1,-1,-1,-1,-1,-1,-1,-1],"split_conditions":[1.017E3,2.895734E2,2.2698938E3,2.8151334E2,2.62368E1,7.97704E0,3.348788E1,1.18824E1,3.6517612E2,1.014E3,3.0403732E2,9E-1,5.053651E1,-2.4180068E-2,6.2255934E-2,1.3108519E-1,6.506425E-2,4.3521445E-2,8.9438014E-2,3.8091082E-2,1.4198824E-2,4.8567582E-2,1.1445325E-1,1.2228171E-2,-4.0611386E-2,-6.301201E-2,-2.2754058E-2],"split_indices":[5,4,7,7,6,0,0,3,7,5,4,1,3,0,0,0,0,0,0,0,0,0,0,0,0,0,0],"split_type":[0,0,0,0,0,0,0,0,0,0,0,0,0,0,0,0,0,0,0,0,0,0,0,0,0,0,0],"sum_hessian":[2.24E2,9.2E1,1.32E2,5.8E1,3.4E1,1.3E2,2E0,3.2E1,2.6E1,2.3E1,1.1E1,1.7E1,1.13E2,1E0,1E0,2.3E1,9E0,1.1E1,1.5E1,1.5E1,8E0,6E0,5E0,4E0,1.3E1,1.09E2,4E0],"tree_param":{"num_deleted":"0","num_feature":"10","num_nodes":"27","size_leaf_vector":"1"}},{"base_weights":[6.0850736E-3,1.9449227E0,-1.3496892E0,2.3445415E0,1.2157102E0,-1.3845373E0,6.21906E-1,2.7671707E0,1.7411603E0,7.394256E-1,2.06697E0,-6.781349E-1,-1.4839295E0,-2.369646E-2,6.101082E-2,1.2606025E-1,6.272193E-2,9.482072E-2,4.9260296E-2,-9.90158E-3,3.1723987E-2,4.69024E-2,1.1063814E-1,-4.3064527E-2,4.073884E-3,-6.0514443E-2,-2.202594E-2],"categories":[],"categories_nodes":[],"categories_segments":[],"categories_sizes":[],"default_left":[0,0,0,0,0,0,0,0,0,0,0,0,0,0,0,0,0,0,0,0,0,0,0,0,0,0,0],"id":3,"left_children":[1,3,5,7,9,11,13,15,17,19,21,23,25,-1,-1,-1,-1,-1,-1,-1,-1,-1,-1,-1,-1,-1,-1],"loss_changes":[5.940659E2,2.425058E1,9.998962E0,1.0227325E1,1.2662098E1,8.191345E0,4.1945014E0,1.0266846E1,5.7410583E0,1.4677114E0,4.2588882E0,5.704156E0,2.245102E0,0E0,0E0,0E0,0E0,0E0,0E0,0E0,0E0,0E0,0E0,0E0,0E0,0E0,0E0],"parents":[2147483647,0,0,1,1,2,2,3,3,4,4,5,5,6,6,7,7,8,8,9,9,10,10,11,11,12,12],"right_children":[2,4,6,8,10,12,14,16,18,20,22,24,26,-1,-1,-1,-1,-1,-1,-1,-1,-1,-1,-1,-1,-1,-1],"split_conditions":[1.017E3,2.895734E2,2.2698938E3,2.8151334E2,2.62368E1,7.97704E0,3.348788E1,1.18824E1,4.796957E1,9E-1,3.0403732E2,1.764904E1,5.053651E1,-2.369646E-2,6.101082E-2,1.2606025E-1,6.272193E-2,9.482072E-2,4.9260296E-2,-9.90158E-3,3.1723987E-2,4.69024E-2,1.1063814E-1,-4.3064527E-2,4.073884E-3,-6.0514443E-2,-2.202594E-2],"split_indices":[5,4,7,7,6,0,0,3,4,1,4,6,3,0,0,0,0,0,0,0,0,0,0,0,0,0,0],"split_type":[0,0,0,0,0,0,0,0,0,0,0,0,0,0,0,0,0,0,0,0,0,0,0,0,0,0,0],"sum_hessian":[2.24E2,9.2E1,1.32E2,5.8E1,3.4E1,1.3E2,2E0,3.2E1,2.6E1,2.3E1,1.1E1,1.7E1,1.13E2,1E0,1E0,2.3E1,9E0,1E1,1.6E1,1E0,2.2E1,6E0,5E0,1.1E1,6E0,1.09E2,4E0],"tree_param":{"num_deleted":"0","num_feature":"10","num_nodes":"27","size_leaf_vector":"1"}},{"base_weights":[7.7438904E-3,1.8726336E0,-1.296335E0,2.2564015E0,1.1722064E0,-1.3300836E0,6.0946816E-1,2.6622043E0,1.6768502E0,7.1075785E-1,1.9974197E0,-6.53176E-1,-1.4252963E0,-2.3222523E-2,5.979061E-2,5.9573285E-2,1.2159903E-1,3.9815698E-2,8.332561E-2,1.8156568E-2,4.09979E-2,1.1280554E-1,4.934172E-2,1.208361E-2,-3.790748E-2,-5.8115866E-2,-2.1321105E-2],"categories":[],"categories_nodes":[],"categories_segments":[],"categories_sizes":[],"default_left":[0,0,0,0,0,0,0,0,0,0,0,0,0,0,0,0,0,0,0,0,0,0,0,0,0,0,0],"id":4,"left_children":[1,3,5,7,9,11,13,15,17,19,21,23,25,-1,-1,-1,-1,-1,-1,-1,-1,-1,-1,-1,-1,-1,-1],"loss_changes":[5.4961926E2,2.2353577E1,9.36496E0,9.411743E0,1.1908085E1,7.5120087E0,4.0283995E0,1.0094025E1,5.401924E0,1.4715052E0,4.06271E0,5.350345E0,2.0330505E0,0E0,0E0,0E0,0E0,0E0,0E0,0E0,0E0,0E0,0E0,0E0,0E0,0E0,0E0],"parents":[2147483647,0,0,1,1,2,2,3,3,4,4,5,5,6,6,7,7,8,8,9,9,10,10,11,11,12,12],"right_children":[2,4,6,8,10,12,14,16,18,20,22,24,26,-1,-1,-1,-1,-1,-1,-1,-1,-1,-1,-1,-1,-1,-1],"split_conditions":[1.017E3,2.895734E2,2.2698938E3,2.8151334E2,2.62368E1,7.97704E0,3.348788E1,9E-1,3.6517612E2,3.2756552E2,9.57892E0,9E-1,5.053651E1,-2.3222523E-2,5.979061E-2,5.9573285E-2,1.2159903E-1,3.9815698E-2,8.332561E-2,1.8156568E-2,4.09979E-2,1.1280554E-1,4.934172E-2,1.208361E-2,-3.790748E-2,-5.8115866E-2,-2.1321105E-2],"split_indices":[5,4,7,7,6,0,0,1,7,4,0,1,3,0,0,0,0,0,0,0,0,0,0,0,0,0,0],"split_type":[0,0,0,0,0,0,0,0,0,0,0,0,0,0,0,0,0,0,0,0,0,0,0,0,0,0,0],"sum_hessian":[2.24E2,9.2E1,1.32E2,5.8E1,3.4E1,1.3E2,2E0,3.2E1,2.6E1,2.3E1,1.1E1,1.7E1,1.13E2,1E0,1E0,9E0,2.3E1,1.1E1,1.5E1,1.4E1,9E0,4E0,7E0,4E0,1.3E1,1.09E2,4E0],"tree_param":{"num_deleted":"0","num_feature":"10","num_nodes":"27","size_leaf_vector":"1"}},{"base_weights":[9.4649205E-3,1.8033799E0,-1.244998E0,2.1713033E0,1.1316409E0,-1.2776837E0,5.972789E-1,2.8901594E0,1.8366091E0,6.847922E-1,1.931035E0,-6.284836E-1,-1.3689812E0,-2.2758063E-2,5.8594797E-2,1.3291766E-1,4.747575E-2,1.13442475E-2,7.621792E-2,3.44394E-2,1.1818903E-2,1.0919576E-1,4.7614746E-2,-4.0262204E-2,4.376891E-3,-5.5812363E-2,-2.0638824E-2],"categories":[],"categories_nodes":[],"categories_segments":[],"categories_sizes":[],"default_left":[0,0,0,0,0,0,0,0,0,0,0,0,0,0,0,0,0,0,0,0,0,0,0,0,0,0,0],"id":5,"left_children":[1,3,5,7,9,11,13,15,17,19,21,23,25,-1,-1,-1,-1,-1,-1,-1,-1,-1,-1,-1,-1,-1,-1],"loss_changes":[5.0858514E2,2.0527649E1,8.771896E0,8.887146E0,1.1179932E1,6.904022E0,3.8688736E0,8.587463E0,4.05661E0,1.3918896E0,3.8506775E0,5.1318007E0,1.8402863E0,0E0,0E0,0E0,0E0,0E0,0E0,0E0,0E0,0E0,0E0,0E0,0E0,0E0,0E0],"parents":[2147483647,0,0,1,1,2,2,3,3,4,4,5,5,6,6,7,7,8,8,9,9,10,10,11,11,12,12],"right_children":[2,4,6,8,10,12,14,16,18,20,22,24,26,-1,-1,-1,-1,-1,-1,-1,-1,-1,-1,-1,-1,-1,-1],"split_conditions":[1.017E3,2.895734E2,2.2698938E3,7.93863E0,2.62368E1,7.97704E0,3.348788E1,1.8E0,7.30392E0,1.014E3,9.57892E0,1.764904E1,5.053651E1,-2.2758063E-2,5.8594797E-2,1.3291766E-1,4.747575E-2,1.13442475E-2,7.621792E-2,3.44394E-2,1.1818903E-2,1.0919576E-1,4.7614746E-2,-4.0262204E-2,4.376891E-3,-5.5812363E-2,-2.0638824E-2],"split_indices":[5,4,7,0,6,0,0,2,3,5,0,6,3,0,0,0,0,0,0,0,0,0,0,0,0,0,0],"split_type":[0,0,0,0,0,0,0,0,0,0,0,0,0,0,0,0,0,0,0,0,0,0,0,0,0,0,0],"sum_hessian":[2.24E2,9.2E1,1.32E2,5.8E1,3.4E1,1.3E2,2E0,1.6E1,4.2E1,2.3E1,1.1E1,1.7E1,1.13E2,1E0,1E0,1.2E1,4E0,2E0,4E1,1.5E1,8E0,4E0,7E0,1.1E1,6E0,1.09E2,4E0],"tree_param":{"num_deleted":"0","num_feature":"10","num_nodes":"27","size_leaf_vector":"1"}},{"base_weights":[1.08400555E-2,1.7363096E0,-1.1957729E0,2.2373085E0,1.2607046E0,-1.2274336E0,5.853335E-1,3.1078176E0,1.628881E0,2.1524148E0,9.839667E-1,-6.0533804E-1,-1.3148922E0,-2.2302894E-2,5.7422902E-2,2.7781473E-2,1.3533144E-1,7.758386E-2,3.029662E-2,2.4157561E-2,8.987473E-2,3.0787813E-2,6.199246E-2,1.1913964E-2,-3.5386655E-2,-5.3287897E-2,-9.221306E-3],"categories":[],"categories_nodes":[],"categories_segments":[],"categories_sizes":[],"default_left":[0,0,0,0,0,0,0,0,0,0,0,0,0,0,0,0,0,0,0,0,0,0,0,0,0,0,0],"id":6,"left_children":[1,3,5,7,9,11,13,15,17,19,21,23,25,-1,-1,-1,-1,-1,-1,-1,-1,-1,-1,-1,-1,-1,-1],"loss_changes":[4.705204E2,1.9339203E1,8.21846E0,1.8241974E1,1.0220596E1,6.3314514E0,3.7156653E0,8.951492E0,6.112686E0,2.5188065E-1,3.6568909E0,4.8046417E0,1.8321075E0,0E0,0E0,0E0,0E0,0E0,0E0,0E0,0E0,0E0,0E0,0E0,0E0,0E0,0E0],"parents":[2147483647,0,0,1,1,2,2,3,3,4,4,5,5,6,6,7,7,8,8,9,9,10,10,11,11,12,12],"right_children":[2,4,6,8,10,12,14,16,18,20,22,24,26,-1,-1,-1,-1,-1,-1,-1,-1,-1,-1,-1,-1,-1,-1],"split_conditions":[1.017E3,2.8151334E2,2.2698938E3,8.31094E0,4.796957E1,7.97704E0,3.348788E1,9.573527E1,2.8155502E2,6.13097E0,1.5E0,9E-1,3.5723694E2,-2.2302894E-2,5.7422902E-2,2.7781473E-2,1.3533144E-1,7.758386E-2,3.029662E-2,2.4157561E-2,8.987473E-2,3.0787813E-2,6.199246E-2,1.1913964E-2,-3.5386655E-2,-5.3287897E-2,-9.221306E-3],"split_indices":[5,7,7,0,4,0,0,7,4,4,1,1,4,0,0,0,0,0,0,0,0,0,0,0,0,0,0],"split_type":[0,0,0,0,0,0,0,0,0,0,0,0,0,0,0,0,0,0,0,0,0,0,0,0,0,0,0],"sum_hessian":[2.24E2,9.2E1,1.32E2,4.3E1,4.9E1,1.3E2,2E0,1.6E1,2.7E1,1E1,3.9E1,1.7E1,1.13E2,1E0,1E0,2E0,1.4E1,1.9E1,8E0,1E0,9E0,3E1,9E0,4E0,1.3E1,1.11E2,2E0],"tree_param":{"num_deleted":"0","num_feature":"10","num_nodes":"27","size_leaf_vector":"1"}},{"base_weights":[1.2303857E-2,1.6719952E0,-1.1483246E0,2.153975E0,1.2144129E0,-1.1789929E0,5.736268E-1,2.9931002E0,1.5675784E0,2.0766852E0,9.469278E-1,-5.8242834E-1,-1.2628452E0,-2.185684E-2,5.627445E-2,5.0592102E-2,1.3710366E-1,7.4635655E-2,2.9219419E-2,2.3674412E-2,8.663926E-2,2.959604E-2,5.9760723E-2,-3.7646066E-2,4.6292003E-3,-5.152007E-2,-1.8273193E-2],"categories":[],"categories_nodes":[],"categories_segments":[],"categories_sizes":[],"default_left":[0,0,0,0,0,0,0,0,0,0,0,0,0,0,0,0,0,0,0,0,0,0,0,0,0,0,0],"id":7,"left_children":[1,3,5,7,9,11,13,15,17,19,21,23,25,-1,-1,-1,-1,-1,-1,-1,-1,-1,-1,-1,-1,-1,-1],"loss_changes":[4.353341E2,1.7894897E1,7.6999054E0,1.6958725E1,9.565781E0,5.8175354E0,3.568526E0,8.430588E0,5.6290283E0,1.7652512E-1,3.425068E0,4.616942E0,1.7231445E0,0E0,0E0,0E0,0E0,0E0,0E0,0E0,0E0,0E0,0E0,0E0,0E0,0E0,0E0],"parents":[2147483647,0,0,1,1,2,2,3,3,4,4,5,5,6,6,7,7,8,8,9,9,10,10,11,11,12,12],"right_children":[2,4,6,8,10,12,14,16,18,20,22,24,26,-1,-1,-1,-1,-1,-1,-1,-1,-1,-1,-1,-1,-1,-1],"split_conditions":[1.017E3,2.8151334E2,2.2698938E3,8.31094E0,4.796957E1,7.97704E0,3.348788E1,1.0983818E2,2.8155502E2,6.13097E0,1.5E0,1.764904E1,5.053651E1,-2.185684E-2,5.627445E-2,5.0592102E-2,1.3710366E-1,7.4635655E-2,2.9219419E-2,2.3674412E-2,8.663926E-2,2.959604E-2,5.9760723E-2,-3.7646066E-2,4.6292003E-3,-5.152007E-2,-1.8273193E-2],"split_indices":[5,7,7,0,4,0,0,7,4,4,1,6,3,0,0,0,0,0,0,0,0,0,0,0,0,0,0],"split_type":[0,0,0,0,0,0,0,0,0,0,0,0,0,0,0,0,0,0,0,0,0,0,0,0,0,0,0],"sum_hessian":[2.24E2,9.2E1,1.32E2,4.3E1,4.9E1,1.3E2,2E0,1.6E1,2.7E1,1E1,3.9E1,1.7E1,1.13E2,1E0,1E0,4E0,1.2E1,1.9E1,8E0,1E0,9E0,3E1,9E0,1.1E1,6E0,1.09E2,4E0],"tree_param":{"num_deleted":"0","num_feature":"10","num_nodes":"27","size_leaf_vector":"1"}},{"base_weights":[1.36910165E-2,1.6103971E0,-1.1029056E0,2.074442E0,1.1698296E0,-1.1326177E0,5.621545E-1,2.8844168E0,1.5085844E0,2.0036461E0,9.112843E-1,-5.609653E-1,-1.2129433E0,-2.1419697E-2,5.5148963E-2,2.5691502E-2,1.2562193E-1,7.17995E-2,2.8180499E-2,2.3200931E-2,8.352024E-2,2.8450374E-2,5.7609323E-2,1.1722778E-2,-3.303635E-2,-4.9180508E-2,-7.6015345E-3],"categories":[],"categories_nodes":[],"categories_segments":[],"categories_sizes":[],"default_left":[0,0,0,0,0,0,0,0,0,0,0,0,0,0,0,0,0,0,0,0,0,0,0,0,0,0,0],"id":8,"left_children":[1,3,5,7,9,11,13,15,17,19,21,23,25,-1,-1,-1,-1,-1,-1,-1,-1,-1,-1,-1,-1,-1,-1],"loss_changes":[4.0292334E2,1.6586472E1,7.2165375E0,1.581514E1,8.953079E0,5.3348846E0,3.4272118E0,7.7456055E0,5.1834908E0,1.0997009E-1,3.207737E0,4.3149242E0,1.6985016E0,0E0,0E0,0E0,0E0,0E0,0E0,0E0,0E0,0E0,0E0,0E0,0E0,0E0,0E0],"parents":[2147483647,0,0,1,1,2,2,3,3,4,4,5,5,6,6,7,7,8,8,9,9,10,10,11,11,12,12],"right_children":[2,4,6,8,10,12,14,16,18,20,22,24,26,-1,-1,-1,-1,-1,-1,-1,-1,-1,-1,-1,-1,-1,-1],"split_conditions":[1.017E3,2.8151334E2,2.2698938E3,8.31094E0,4.796957E1,7.97704E0,3.348788E1,9.573527E1,2.8155502E2,6.13097E0,1.5E0,9E-1,3.5723694E2,-2.1419697E-2,5.5148963E-2,2.5691502E-2,1.2562193E-1,7.17995E-2,2.8180499E-2,2.3200931E-2,8.352024E-2,2.8450374E-2,5.7609323E-2,1.1722778E-2,-3.303635E-2,-4.9180508E-2,-7.6015345E-3],"split_indices":[5,7,7,0,4,0,0,7,4,4,1,1,4,0,0,0,0,0,0,0,0,0,0,0,0,0,0],"split_type":[0,0,0,0,0,0,0,0,0,0,0,0,0,0,0,0,0,0,0,0,0,0,0,0,0,0,0],"sum_hessian":[2.24E2,9.2E1,1.32E2,4.3E1,4.9E1,1.3E2,2E0,1.6E1,2.7E1,1E1,3.9E1,1.7E1,1.13E2,1E0,1E0,2E0,1.4E1,1.9E1,8E0,1E0,9E0,3E1,9E0,4E0,1.3E1,1.11E2,2E0],"tree_param":{"num_deleted":"0","num_feature":"10","num_nodes":"27","size_leaf_vector":"1"}},{"base_weights":[1.4920167E-2,1.5507565E0,-1.0591227E0,1.9971758E0,1.1268922E0,-1.0879087E0,5.5091125E-1,2.777941E0,1.451812E0,1.9332025E0,8.7698466E-1,-5.397108E-1,-1.1649232E0,-2.0991307E-2,5.4045983E-2,4.6552137E-2,1.27403E-1,6.907113E-2,2.7178539E-2,2.273691E-2,8.051352E-2,2.7349083E-2,5.5535384E-2,-8.8427765E-3,-5.295859E-2,-4.7558874E-2,-1.6114686E-2],"categories":[],"categories_nodes":[],"categories_segments":[],"categories_sizes":[],"default_left":[0,0,0,0,0,0,0,0,0,0,0,0,0,0,0,0,0,0,0,0,0,0,0,0,0,0,0],"id":9,"left_children":[1,3,5,7,9,11,13,15,17,19,21,23,25,-1,-1,-1,-1,-1,-1,-1,-1,-1,-1,-1,-1,-1,-1],"loss_changes":[3.7279208E2,1.534697E1,6.7634277E0,1.4702209E1,8.379761E0,4.901993E0,3.2914944E0,7.465088E0,4.7730713E0,5.1395416E-2,3.0039978E0,4.2054358E0,1.6102142E0,0E0,0E0,0E0,0E0,0E0,0E0,0E0,0E0,0E0,0E0,0E0,0E0,0E0,0E0],"parents":[2147483647,0,0,1,1,2,2,3,3,4,4,5,5,6,6,7,7,8,8,9,9,10,10,11,11,12,12],"right_children":[2,4,6,8,10,12,14,16,18,20,22,24,26,-1,-1,-1,-1,-1,-1,-1,-1,-1,-1,-1,-1,-1,-1],"split_conditions":[1.017E3,2.8151334E2,2.2698938E3,8.31094E0,4.796957E1,7.97704E0,3.348788E1,1.0983818E2,2.8155502E2,6.13097E0,1.5E0,1E0,5.053651E1,-2.0991307E-2,5.4045983E-2,4.6552137E-2,1.27403E-1,6.907113E-2,2.7178539E-2,2.273691E-2,8.051352E-2,2.7349083E-2,5.5535384E-2,-8.8427765E-3,-5.295859E-2,-4.7558874E-2,-1.6114686E-2],"split_indices":[5,7,7,0,4,0,0,7,4,4,1,9,3,0,0,0,0,0,0,0,0,0,0,0,0,0,0],"split_type":[0,0,0,0,0,0,0,0,0,0,0,0,0,0,0,0,0,0,0,0,0,0,0,0,0,0,0],"sum_hessian":[2.24E2,9.2E1,1.32E2,4.3E1,4.9E1,1.3E2,2E0,1.6E1,2.7E1,1E1,3.9E1,1.7E1,1.13E2,1E0,1E0,4E0,1.2E1,1.9E1,8E0,1E0,9E0,3E1,9E0,1.3E1,4E0,1.09E2,4E0],"tree_param":{"num_deleted":"0","num_feature":"10","num_nodes":"27","size_leaf_vector":"1"}},{"base_weights":[1.5940657E-2,1.4936329E0,-1.0174527E0,1.9234298E0,1.085539E0,-1.0453503E0,5.3989315E-1,2.677056E0,1.3971772E0,1.8652605E0,8.439771E-1,-5.215561E-1,-1.1188849E0,-2.057148E-2,5.2965067E-2,4.5062482E-2,1.22698896E-1,6.644644E-2,2.6212184E-2,2.228218E-2,7.761502E-2,2.6290394E-2,5.353611E-2,-3.4291133E-2,5.1390347E-3,-4.539039E-2,-6.1305873E-3],"categories":[],"categories_nodes":[],"categories_segments":[],"categories_sizes":[],"default_left":[0,0,0,0,0,0,0,0,0,0,0,0,0,0,0,0,0,0,0,0,0,0,0,0,0,0,0],"id":10,"left_children":[1,3,5,7,9,11,13,15,17,19,21,23,25,-1,-1,-1,-1,-1,-1,-1,-1,-1,-1,-1,-1,-1,-1],"loss_changes":[3.4510312E2,1.422403E1,6.3427277E0,1.3709976E1,7.843315E0,4.462158E0,3.1611516E0,6.835045E0,4.3950233E0,3.0517578E-5,2.8130322E0,4.0382833E0,1.5735931E0,0E0,0E0,0E0,0E0,0E0,0E0,0E0,0E0,0E0,0E0,0E0,0E0,0E0,0E0],"parents":[2147483647,0,0,1,1,2,2,3,3,4,4,5,5,6,6,7,7,8,8,9,9,10,10,11,11,12,12],"right_children":[2,4,6,8,10,12,14,16,18,20,22,24,26,-1,-1,-1,-1,-1,-1,-1,-1,-1,-1,-1,-1,-1,-1],"split_conditions":[1.017E3,2.8151334E2,2.2698938E3,8.31094E0,4.796957E1,7.97704E0,3.348788E1,1.0983818E2,2.8155502E2,6.13097E0,1.5E0,1.764904E1,3.5723694E2,-2.057148E-2,5.2965067E-2,4.5062482E-2,1.22698896E-1,6.644644E-2,2.6212184E-2,2.228218E-2,7.761502E-2,2.6290394E-2,5.353611E-2,-3.4291133E-2,5.1390347E-3,-4.539039E-2,-6.1305873E-3],"split_indices":[5,7,7,0,4,0,0,7,4,4,1,6,4,0,0,0,0,0,0,0,0,0,0,0,0,0,0],"split_type":[0,0,0,0,0,0,0,0,0,0,0,0,0,0,0,0,0,0,0,0,0,0,0,0,0,0,0],"sum_hessian":[2.24E2,9.2E1,1.32E2,4.3E1,4.9E1,1.3E2,2E0,1.6E1,2.7E1,1E1,3.9E1,1.7E1,1.13E2,1E0,1E0,4E0,1.2E1,1.9E1,8E0,1E0,9E0,3E1,9E0,1.1E1,6E0,1.11E2,2E0],"tree_param":{"num_deleted":"0","num_feature":"10","num_nodes":"27","size_leaf_vector":"1"}},{"base_weights":[1.7044615E-2,1.4386206E0,-9.7711784E-1,1.8524115E0,1.0457121E0,-1.0041524E0,5.2909535E-1,2.805668E0,1.4496391E0,7.198927E-2,8.1221396E-1,-5.023134E-1,-1.0745817E0,-2.0160045E-2,5.1905766E-2,4.5780856E-2,1.2928858E-1,7.0824265E-2,3.550272E-2,3.7815228E-2,9.939448E-3,-7.916619E-3,-5.0166596E-2,-3.777068E-2,-5.04176E-2],"categories":[],"categories_nodes":[],"categories_segments":[],"categories_sizes":[],"default_left":[0,0,0,0,0,0,0,0,0,0,0,0,0,0,0,0,0,0,0,0,0,0,0,0,0],"id":11,"left_children":[1,3,5,7,9,11,13,15,17,-1,19,21,23,-1,-1,-1,-1,-1,-1,-1,-1,-1,-1,-1,-1],"loss_changes":[3.1939313E2,1.3183029E1,5.947029E0,1.28263855E1,7.341343E0,4.090317E0,3.0359693E0,4.803337E0,4.3818817E0,0E0,2.7678776E0,3.8712978E0,1.5708771E0,0E0,0E0,0E0,0E0,0E0,0E0,0E0,0E0,0E0,0E0,0E0,0E0],"parents":[2147483647,0,0,1,1,2,2,3,3,4,4,5,5,6,6,7,7,8,8,10,10,11,11,12,12],"right_children":[2,4,6,8,10,12,14,16,18,-1,20,22,24,-1,-1,-1,-1,-1,-1,-1,-1,-1,-1,-1,-1],"split_conditions":[1.017E3,2.8151334E2,2.2698938E3,5.60768E0,4.796957E1,7.97704E0,3.348788E1,1.0983818E2,2.0913167E2,7.198927E-2,1.014E3,1E0,1.837039E1,-2.0160045E-2,5.1905766E-2,4.5780856E-2,1.2928858E-1,7.0824265E-2,3.550272E-2,3.7815228E-2,9.939448E-3,-7.916619E-3,-5.0166596E-2,-3.777068E-2,-5.04176E-2],"split_indices":[5,7,7,3,4,0,0,7,7,0,5,9,6,0,0,0,0,0,0,0,0,0,0,0,0],"split_type":[0,0,0,0,0,0,0,0,0,0,0,0,0,0,0,0,0,0,0,0,0,0,0,0,0],"sum_hessian":[2.24E2,9.2E1,1.32E2,4.3E1,4.9E1,1.3E2,2E0,1.1E1,3.2E1,1E1,3.9E1,1.7E1,1.13E2,1E0,1E0,3E0,8E0,1.9E1,1.3E1,3.1E1,8E0,1.3E1,4E0,7E1,4.3E1],"tree_param":{"num_deleted":"0","num_feature":"10","num_nodes":"25","size_leaf_vector":"1"}},{"base_weights":[1.76366E-2,1.3853891E0,-9.388944E-1,1.6729738E0,8.6102104E-1,-9.6510303E-1,5.185134E-1,2.149535E0,1.3734672E0,4.7685954E-1,1.5575923E0,-4.8544794E-1,-1.0323722E0,-1.975685E-2,5.086765E-2,2.2154417E-2,9.538842E-2,7.112111E-2,2.7231371E-2,9.623789E-3,3.134283E-2,3.477398E-2,8.403774E-2,1.20349275E-2,-2.9264083E-2,-4.2208433E-2,-1.2937896E-2],"categories":[],"categories_nodes":[],"categories_segments":[],"categories_sizes":[],"default_left":[0,0,0,0,0,0,0,0,0,0,0,0,0,0,0,0,0,0,0,0,0,0,0,0,0,0,0],"id":12,"left_children":[1,3,5,7,9,11,13,15,17,19,21,23,25,-1,-1,-1,-1,-1,-1,-1,-1,-1,-1,-1,-1,-1,-1],"loss_changes":[2.9566772E2,1.2583939E1,5.580574E0,5.468933E0,8.623104E0,3.7256851E0,2.9157457E0,6.559746E0,9.718605E0,1.5506392E0,2.6610355E0,3.7041306E0,1.5044632E0,0E0,0E0,0E0,0E0,0E0,0E0,0E0,0E0,0E0,0E0,0E0,0E0,0E0,0E0],"parents":[2147483647,0,0,1,1,2,2,3,3,4,4,5,5,6,6,7,7,8,8,9,9,10,10,11,11,12,12],"right_children":[2,4,6,8,10,12,14,16,18,20,22,24,26,-1,-1,-1,-1,-1,-1,-1,-1,-1,-1,-1,-1,-1,-1],"split_conditions":[1.017E3,2.895734E2,2.2698938E3,2.0913167E2,2.62368E1,7.97704E0,3.348788E1,1.0076013E2,2.723989E1,3.2756552E2,3.0403732E2,9E-1,5.053651E1,-1.975685E-2,5.086765E-2,2.2154417E-2,9.538842E-2,7.112111E-2,2.7231371E-2,9.623789E-3,3.134283E-2,3.477398E-2,8.403774E-2,1.20349275E-2,-2.9264083E-2,-4.2208433E-2,-1.2937896E-2],"split_indices":[5,4,7,7,6,0,0,7,6,4,4,1,3,0,0,0,0,0,0,0,0,0,0,0,0,0,0],"split_type":[0,0,0,0,0,0,0,0,0,0,0,0,0,0,0,0,0,0,0,0,0,0,0,0,0,0,0],"sum_hessian":[2.24E2,9.2E1,1.32E2,5.8E1,3.4E1,1.3E2,2E0,2E1,3.8E1,2.3E1,1.1E1,1.7E1,1.13E2,1E0,1E0,3E0,1.7E1,2.3E1,1.5E1,1.4E1,9E0,6E0,5E0,4E0,1.3E1,1.09E2,4E0],"tree_param":{"num_deleted":"0","num_feature":"10","num_nodes":"27","size_leaf_vector":"1"}},{"base_weights":[1.8417548E-2,1.3340131E0,-9.0164864E-1,1.724399E0,9.637934E-1,-9.270512E-1,5.081431E-1,2.63831E0,1.3398131E0,1.6696315E0,7.455931E-1,-4.66987E-1,-9.915608E-1,-1.9361705E-2,4.9850293E-2,4.2391613E-2,1.2186914E-1,6.5459624E-2,3.2811485E-2,1.8974323E-2,6.966892E-2,2.276848E-2,4.87126E-2,-7.0076124E-3,-4.7624815E-2,-3.4682546E-2,-4.679674E-2],"categories":[],"categories_nodes":[],"categories_segments":[],"categories_sizes":[],"default_left":[0,0,0,0,0,0,0,0,0,0,0,0,0,0,0,0,0,0,0,0,0,0,0,0,0,0,0],"id":13,"left_children":[1,3,5,7,9,11,13,15,17,19,21,23,25,-1,-1,-1,-1,-1,-1,-1,-1,-1,-1,-1,-1,-1,-1],"loss_changes":[2.735507E2,1.177919E1,5.2340927E0,1.1930145E1,6.455845E0,3.424858E0,2.800281E0,4.507477E0,3.74395E0,1.21658325E-1,2.638445E0,3.5921845E0,1.5169754E0,0E0,0E0,0E0,0E0,0E0,0E0,0E0,0E0,0E0,0E0,0E0,0E0,0E0,0E0],"parents":[2147483647,0,0,1,1,2,2,3,3,4,4,5,5,6,6,7,7,8,8,9,9,10,10,11,11,12,12],"right_children":[2,4,6,8,10,12,14,16,18,20,22,24,26,-1,-1,-1,-1,-1,-1,-1,-1,-1,-1,-1,-1,-1,-1],"split_conditions":[1.017E3,2.8151334E2,2.2698938E3,5.60768E0,4.796957E1,7.97704E0,3.348788E1,1.0983818E2,2.0913167E2,6.13097E0,1.5E0,1E0,1.837039E1,-1.9361705E-2,4.9850293E-2,4.2391613E-2,1.2186914E-1,6.5459624E-2,3.2811485E-2,1.8974323E-2,6.966892E-2,2.276848E-2,4.87126E-2,-7.0076124E-3,-4.7624815E-2,-3.4682546E-2,-4.679674E-2],"split_indices":[5,7,7,3,4,0,0,7,7,4,1,9,6,0,0,0,0,0,0,0,0,0,0,0,0,0,0],"split_type":[0,0,0,0,0,0,0,0,0,0,0,0,0,0,0,0,0,0,0,0,0,0,0,0,0,0,0],"sum_hessian":[2.24E2,9.2E1,1.32E2,4.3E1,4.9E1,1.3E2,2E0,1.1E1,3.2E1,1E1,3.9E1,1.7E1,1.13E2,1E0,1E0,3E0,8E0,1.9E1,1.3E1,1E0,9E0,3E1,9E0,1.3E1,4E0,7E1,4.3E1],"tree_param":{"num_deleted":"0","num_feature":"10","num_nodes":"27","size_leaf_vector":"1"}},{"base_weights":[1.9089915E-2,1.2851976E0,-8.66377E-1,1.553958E0,7.954242E-1,-8.9100826E-1,4.9798012E-1,1.9982607E0,1.274873E0,4.2850068E-1,1.4629859E0,-4.5134273E-1,-9.526133E-1,-1.8974476E-2,4.8853282E-2,3.254232E-2,9.270532E-2,6.635781E-2,2.4763415E-2,7.977008E-3,2.9170556E-2,3.2408908E-2,7.9228476E-2,-3.0446319E-2,5.769866E-3,-3.8707037E-2,-2.9094825E-3],"categories":[],"categories_nodes":[],"categories_segments":[],"categories_sizes":[],"default_left":[0,0,0,0,0,0,0,0,0,0,0,0,0,0,0,0,0,0,0,0,0,0,0,0,0,0,0],"id":14,"left_children":[1,3,5,7,9,11,13,15,17,19,21,23,25,-1,-1,-1,-1,-1,-1,-1,-1,-1,-1,-1,-1,-1,-1],"loss_changes":[2.5336015E2,1.1005692E1,4.9132843E0,4.7683716E0,7.9461536E0,3.1182556E0,2.68939E0,6.0600586E0,8.795898E0,1.5081058E0,2.450611E0,3.4312022E0,1.4404831E0,0E0,0E0,0E0,0E0,0E0,0E0,0E0,0E0,0E0,0E0,0E0,0E0,0E0,0E0],"parents":[2147483647,0,0,1,1,2,2,3,3,4,4,5,5,6,6,7,7,8,8,9,9,10,10,11,11,12,12],"right_children":[2,4,6,8,10,12,14,16,18,20,22,24,26,-1,-1,-1,-1,-1,-1,-1,-1,-1,-1,-1,-1,-1,-1],"split_conditions":[1.017E3,2.895734E2,2.2698938E3,2.0913167E2,2.62368E1,7.97704E0,3.348788E1,1.0657128E2,2.723989E1,3.2756552E2,3.0403732E2,1.764904E1,3.5723694E2,-1.8974476E-2,4.8853282E-2,3.254232E-2,9.270532E-2,6.635781E-2,2.4763415E-2,7.977008E-3,2.9170556E-2,3.2408908E-2,7.9228476E-2,-3.0446319E-2,5.769866E-3,-3.8707037E-2,-2.9094825E-3],"split_indices":[5,4,7,7,6,0,0,7,6,4,4,6,4,0,0,0,0,0,0,0,0,0,0,0,0,0,0],"split_type":[0,0,0,0,0,0,0,0,0,0,0,0,0,0,0,0,0,0,0,0,0,0,0,0,0,0,0],"sum_hessian":[2.24E2,9.2E1,1.32E2,5.8E1,3.4E1,1.3E2,2E0,2E1,3.8E1,2.3E1,1.1E1,1.7E1,1.13E2,1E0,1E0,5E0,1.5E1,2.3E1,1.5E1,1.4E1,9E0,6E0,5E0,1.1E1,6E0,1.11E2,2E0],"tree_param":{"num_deleted":"0","num_feature":"10","num_nodes":"27","size_leaf_vector":"1"}},{"base_weights":[1.9787284E-2,1.2377161E0,-8.3199596E-1,8.7362796E-1,1.5907273E0,-8.5587424E-1,4.8802057E-1,1.6060423E0,5.8487755E-1,1.9201237E0,7.8196675E-1,-4.3466008E-1,-9.148741E-1,-1.859499E-2,4.7876224E-2,1.7267685E-2,6.6717215E-2,-1.6654873E-2,2.5015242E-2,2.3838691E-2,8.3520174E-2,1.721211E-2,6.565867E-2,-4.9806144E-2,-7.5820438E-3,-3.1828664E-2,-4.3454327E-2],"categories":[],"categories_nodes":[],"categories_segments":[],"categories_sizes":[],"default_left":[0,0,0,0,0,0,0,0,0,0,0,0,0,0,0,0,0,0,0,0,0,0,0,0,0,0,0],"id":15,"left_children":[1,3,5,7,9,11,13,15,17,19,21,23,25,-1,-1,-1,-1,-1,-1,-1,-1,-1,-1,-1,-1,-1,-1],"loss_changes":[2.3444734E2,1.0563324E1,4.6098022E0,9.211941E0,1.0753052E1,2.8579025E0,2.582891E0,2.2478485E-1,1.7203379E0,5.869232E0,3.8275003E0,3.3398461E0,1.465004E0,0E0,0E0,0E0,0E0,0E0,0E0,0E0,0E0,0E0,0E0,0E0,0E0,0E0,0E0],"parents":[2147483647,0,0,1,1,2,2,3,3,4,4,5,5,6,6,7,7,8,8,9,9,10,10,11,11,12,12],"right_children":[2,4,6,8,10,12,14,16,18,20,22,24,26,-1,-1,-1,-1,-1,-1,-1,-1,-1,-1,-1,-1,-1,-1],"split_conditions":[1.017E3,2.678424E1,2.2698938E3,4.796957E1,1.8E0,7.97704E0,3.348788E1,6.13097E0,9E-1,1.0402161E2,5.230822E2,1.367759E2,1.837039E1,-1.859499E-2,4.7876224E-2,1.7267685E-2,6.6717215E-2,-1.6654873E-2,2.5015242E-2,2.3838691E-2,8.3520174E-2,1.721211E-2,6.565867E-2,-4.9806144E-2,-7.5820438E-3,-3.1828664E-2,-4.3454327E-2],"split_indices":[5,6,7,4,2,0,0,4,1,7,7,7,6,0,0,0,0,0,0,0,0,0,0,0,0,0,0],"split_type":[0,0,0,0,0,0,0,0,0,0,0,0,0,0,0,0,0,0,0,0,0,0,0,0,0,0,0],"sum_hessian":[2.24E2,9.2E1,1.32E2,4.7E1,4.5E1,1.3E2,2E0,1.2E1,3.5E1,3.1E1,1.4E1,1.7E1,1.13E2,1E0,1E0,1E0,1.1E1,1E0,3.4E1,4E0,2.7E1,1.1E1,3E0,3E0,1.4E1,7E1,4.3E1],"tree_param":{"num_deleted":"0","num_feature":"10","num_nodes":"27","size_leaf_vector":"1"}},{"base_weights":[1.9792285E-2,1.1912462E0,-7.9949343E-1,8.40607E-1,1.5312339E0,-8.22652E-1,4.7826004E-1,1.548261E0,5.6171507E-1,1.8466738E0,7.5621295E-1,-4.2046207E-1,-8.789394E-1,-1.8223094E-2,4.6918698E-2,1.692234E-2,6.427092E-2,-1.6321773E-2,2.4043236E-2,3.1760216E-2,8.236235E-2,1.6581006E-2,6.368892E-2,1.2221749E-2,-2.5988674E-2,-3.601981E-2,-9.156921E-3],"categories":[],"categories_nodes":[],"categories_segments":[],"categories_sizes":[],"default_left":[0,0,0,0,0,0,0,0,0,0,0,0,0,0,0,0,0,0,0,0,0,0,0,0,0,0,0],"id":16,"left_children":[1,3,5,7,9,11,13,15,17,19,21,23,25,-1,-1,-1,-1,-1,-1,-1,-1,-1,-1,-1,-1,-1,-1],"loss_changes":[2.1689737E2,9.799652E0,4.329033E0,8.60355E0,9.849258E0,2.5960388E0,2.4806087E0,1.7613602E-1,1.6195812E0,5.519356E0,3.6247997E0,3.1944423E0,1.3911896E0,0E0,0E0,0E0,0E0,0E0,0E0,0E0,0E0,0E0,0E0,0E0,0E0,0E0,0E0],"parents":[2147483647,0,0,1,1,2,2,3,3,4,4,5,5,6,6,7,7,8,8,9,9,10,10,11,11,12,12],"right_children":[2,4,6,8,10,12,14,16,18,20,22,24,26,-1,-1,-1,-1,-1,-1,-1,-1,-1,-1,-1,-1,-1,-1],"split_conditions":[1.017E3,2.678424E1,2.2698938E3,4.796957E1,1.8E0,7.97704E0,3.348788E1,6.13097E0,9E-1,1.0657128E2,5.230822E2,9E-1,5.053651E1,-1.8223094E-2,4.6918698E-2,1.692234E-2,6.427092E-2,-1.6321773E-2,2.4043236E-2,3.1760216E-2,8.236235E-2,1.6581006E-2,6.368892E-2,1.2221749E-2,-2.5988674E-2,-3.601981E-2,-9.156921E-3],"split_indices":[5,6,7,4,2,0,0,4,1,7,7,1,3,0,0,0,0,0,0,0,0,0,0,0,0,0,0],"split_type":[0,0,0,0,0,0,0,0,0,0,0,0,0,0,0,0,0,0,0,0,0,0,0,0,0,0,0],"sum_hessian":[2.24E2,9.2E1,1.32E2,4.7E1,4.5E1,1.3E2,2E0,1.2E1,3.5E1,3.1E1,1.4E1,1.7E1,1.13E2,1E0,1E0,1E0,1.1E1,1E0,3.4E1,6E0,2.5E1,1.1E1,3E0,4E0,1.3E1,1.09E2,4E0],"tree_param":{"num_deleted":"0","num_feature":"10","num_nodes":"27","size_leaf_vector":"1"}},{"base_weights":[2.0125592E-2,1.1466428E0,-7.677407E-1,8.088352E-1,1.4742106E0,-7.9019547E-1,4.686947E-1,1.4925762E0,5.394611E-1,1.7763734E0,7.31316E-1,-4.044084E-1,-8.4417766E-1,-1.7858637E-2,4.598032E-2,1.65839E-2,6.1914317E-2,-1.5995331E-2,2.3108989E-2,4.805807E-2,8.8519335E-2,1.5973052E-2,6.177824E-2,-4.753229E-2,-6.7363256E-3,-2.9213458E-2,-4.03476E-2],"categories":[],"categories_nodes":[],"categories_segments":[],"categories_sizes":[],"default_left":[0,0,0,0,0,0,0,0,0,0,0,0,0,0,0,0,0,0,0,0,0,0,0,0,0,0,0],"id":17,"left_children":[1,3,5,7,9,11,13,15,17,19,21,23,25,-1,-1,-1,-1,-1,-1,-1,-1,-1,-1,-1,-1,-1,-1],"loss_changes":[2.0057793E2,9.098511E0,4.06295E0,8.035557E0,9.026764E0,2.3867645E0,2.3823771E0,1.32967E-1,1.5249615E0,5.3737335E0,3.4325686E0,3.1298854E0,1.3983383E0,0E0,0E0,0E0,0E0,0E0,0E0,0E0,0E0,0E0,0E0,0E0,0E0,0E0,0E0],"parents":[2147483647,0,0,1,1,2,2,3,3,4,4,5,5,6,6,7,7,8,8,9,9,10,10,11,11,12,12],"right_children":[2,4,6,8,10,12,14,16,18,20,22,24,26,-1,-1,-1,-1,-1,-1,-1,-1,-1,-1,-1,-1,-1,-1],"split_conditions":[1.017E3,2.678424E1,2.2698938E3,4.796957E1,1.8E0,7.97704E0,3.348788E1,6.13097E0,9E-1,2.608386E2,5.230822E2,1.367759E2,1.837039E1,-1.7858637E-2,4.598032E-2,1.65839E-2,6.1914317E-2,-1.5995331E-2,2.3108989E-2,4.805807E-2,8.8519335E-2,1.5973052E-2,6.177824E-2,-4.753229E-2,-6.7363256E-3,-2.9213458E-2,-4.03476E-2],"split_indices":[5,6,7,4,2,0,0,4,1,4,7,7,6,0,0,0,0,0,0,0,0,0,0,0,0,0,0],"split_type":[0,0,0,0,0,0,0,0,0,0,0,0,0,0,0,0,0,0,0,0,0,0,0,0,0,0,0],"sum_hessian":[2.24E2,9.2E1,1.32E2,4.7E1,4.5E1,1.3E2,2E0,1.2E1,3.5E1,3.1E1,1.4E1,1.7E1,1.13E2,1E0,1E0,1E0,1.1E1,1E0,3.4E1,1.5E1,1.6E1,1.1E1,3E0,3E0,1.4E1,7E1,4.3E1],"tree_param":{"num_deleted":"0","num_feature":"10","num_nodes":"27","size_leaf_vector":"1"}},{"base_weights":[2.0228432E-2,1.104002E0,-7.377503E-1,1.6432314E0,9.033519E-1,-7.5953245E-1,4.593207E-1,5.584345E-1,2.1507277E0,1.1757526E0,5.4313374E-1,-3.9124668E-1,-8.1102026E-1,-1.7501468E-2,4.506071E-2,3.2079886E-3,4.544712E-2,2.852893E-2,1.0281842E-1,6.6275574E-2,3.8108375E-2,4.0499058E-2,1.4848747E-2,-2.8704163E-2,4.2560245E-3,-3.3013586E-2,-2.4354299E-4],"categories":[],"categories_nodes":[],"categories_segments":[],"categories_sizes":[],"default_left":[0,0,0,0,0,0,0,0,0,0,0,0,0,0,0,0,0,0,0,0,0,0,0,0,0,0,0],"id":18,"left_children":[1,3,5,7,9,11,13,15,17,19,21,23,25,-1,-1,-1,-1,-1,-1,-1,-1,-1,-1,-1,-1,-1,-1],"loss_changes":[1.8564688E2,8.577858E0,3.8168182E0,1.2011688E1,6.230068E0,2.166748E0,2.288035E0,2.3955522E0,7.820572E0,2.6067238E0,2.2061357E0,2.9997492E0,1.3089523E0,0E0,0E0,0E0,0E0,0E0,0E0,0E0,0E0,0E0,0E0,0E0,0E0,0E0,0E0],"parents":[2147483647,0,0,1,1,2,2,3,3,4,4,5,5,6,6,7,7,8,8,9,9,10,10,11,11,12,12],"right_children":[2,4,6,8,10,12,14,16,18,20,22,24,26,-1,-1,-1,-1,-1,-1,-1,-1,-1,-1,-1,-1,-1,-1],"split_conditions":[1.017E3,8.31094E0,2.2698938E3,2.707357E1,2.8355286E2,7.97704E0,3.348788E1,6.53734E0,2.0657452E2,2.0913167E2,1.01E3,5.35294E0,3.5723694E2,-1.7501468E-2,4.506071E-2,3.2079886E-3,4.544712E-2,2.852893E-2,1.0281842E-1,6.6275574E-2,3.8108375E-2,4.0499058E-2,1.4848747E-2,-2.8704163E-2,4.2560245E-3,-3.3013586E-2,-2.4354299E-4],"split_indices":[5,0,7,6,4,0,0,0,4,7,5,3,4,0,0,0,0,0,0,0,0,0,0,0,0,0,0],"split_type":[0,0,0,0,0,0,0,0,0,0,0,0,0,0,0,0,0,0,0,0,0,0,0,0,0,0,0],"sum_hessian":[2.24E2,9.2E1,1.32E2,2.3E1,6.9E1,1.3E2,2E0,8E0,1.5E1,3.8E1,3.1E1,1.7E1,1.13E2,1E0,1E0,5E0,3E0,4E0,1.1E1,1E1,2.8E1,7E0,2.4E1,1E1,7E0,1.11E2,2E0],"tree_param":{"num_deleted":"0","num_feature":"10","num_nodes":"27","size_leaf_vector":"1"}},{"base_weights":[2.0795034E-2,1.0634948E0,-7.084672E-1,1.5850022E0,8.6949956E-1,-2.9464737E-1,-7.7910215E-1,5.415031E-1,2.0729077E0,1.1313988E0,5.2313805E-1,-4.1977844E-1,4.4159487E-2,-7.989415E-1,-3.874564E-2,3.10105E-3,4.40837E-2,2.7615998E-2,9.904841E-2,6.386555E-2,3.6636587E-2,3.90816E-2,1.4278557E-2,-2.2254968E-2,2.1588886E-2,-1.6862147E-2,-3.3634026E-2,-4.725685E-3,3.9888765E-3],"categories":[],"categories_nodes":[],"categories_segments":[],"categories_sizes":[],"default_left":[0,0,0,0,0,0,0,0,0,0,0,0,0,0,0,0,0,0,0,0,0,0,0,0,0,0,0,0,0],"id":19,"left_children":[1,3,5,7,9,11,13,15,17,19,21,23,-1,25,27,-1,-1,-1,-1,-1,-1,-1,-1,-1,-1,-1,-1,-1,-1],"loss_changes":[1.7184383E2,8.030647E0,3.658043E0,1.1096611E1,5.757946E0,4.1386957E0,1.6288071E0,2.2554631E0,7.2115326E0,2.4474373E0,2.064889E0,2.9215612E0,0E0,1.3852997E0,5.5756703E-2,0E0,0E0,0E0,0E0,0E0,0E0,0E0,0E0,0E0,0E0,0E0,0E0,0E0,0E0],"parents":[2147483647,0,0,1,1,2,2,3,3,4,4,5,5,6,6,7,7,8,8,9,9,10,10,11,11,13,13,14,14],"right_children":[2,4,6,8,10,12,14,16,18,20,22,24,-1,26,28,-1,-1,-1,-1,-1,-1,-1,-1,-1,-1,-1,-1,-1,-1],"split_conditions":[1.017E3,8.31094E0,1.796011E1,2.707357E1,2.8355286E2,1.357242E3,3.5723694E2,6.53734E0,2.0657452E2,2.0913167E2,1.01E3,1.762694E1,4.4159487E-2,7.20253E0,3.5763226E2,3.10105E-3,4.40837E-2,2.7615998E-2,9.904841E-2,6.386555E-2,3.6636587E-2,3.90816E-2,1.4278557E-2,-2.2254968E-2,2.1588886E-2,-1.6862147E-2,-3.3634026E-2,-4.725685E-3,3.9888765E-3],"split_indices":[5,0,4,6,4,7,4,0,4,7,5,4,0,0,4,0,0,0,0,0,0,0,0,0,0,0,0,0,0],"split_type":[0,0,0,0,0,0,0,0,0,0,0,0,0,0,0,0,0,0,0,0,0,0,0,0,0,0,0,0,0],"sum_hessian":[2.24E2,9.2E1,1.32E2,2.3E1,6.9E1,2E1,1.12E2,8E0,1.5E1,3.8E1,3.1E1,1.9E1,1E0,1.09E2,3E0,5E0,3E0,4E0,1.1E1,1E1,2.8E1,7E0,2.4E1,1.7E1,2E0,1.2E1,9.7E1,2E0,1E0],"tree_param":{"num_deleted":"0","num_feature":"10","num_nodes":"29","size_leaf_vector":"1"}},{"base_weights":[2.1385409E-2,1.0244789E0,-6.801866E-1,1.5288457E0,8.3691776E-1,-2.8079042E-1,-7.483914E-1,5.2508557E-1,1.9979079E0,1.08872E0,5.0388014E-1,-4.0302068E-1,4.327629E-2,-7.6744276E-1,-3.738022E-2,2.9976715E-3,4.276119E-2,2.67323E-2,9.541663E-2,1.3620402E-2,4.7549434E-2,3.7713747E-2,1.3730266E-2,-2.1414224E-2,2.101317E-2,-3.1582702E-2,-5.796326E-3,-4.5996727E-3,3.909092E-3],"categories":[],"categories_nodes":[],"categories_segments":[],"categories_sizes":[],"default_left":[0,0,0,0,0,0,0,0,0,0,0,0,0,0,0,0,0,0,0,0,0,0,0,0,0,0,0,0,0],"id":20,"left_children":[1,3,5,7,9,11,13,15,17,19,21,23,-1,25,27,-1,-1,-1,-1,-1,-1,-1,-1,-1,-1,-1,-1,-1,-1],"loss_changes":[1.5903886E2,7.5182495E0,3.4128761E0,1.0250748E1,5.321583E0,3.933851E0,1.5019836E0,2.123563E0,6.649502E0,2.5137062E0,1.9326153E0,2.7383015E0,0E0,1.4006653E0,5.3181488E-2,0E0,0E0,0E0,0E0,0E0,0E0,0E0,0E0,0E0,0E0,0E0,0E0,0E0,0E0],"parents":[2147483647,0,0,1,1,2,2,3,3,4,4,5,5,6,6,7,7,8,8,9,9,10,10,11,11,13,13,14,14],"right_children":[2,4,6,8,10,12,14,16,18,20,22,24,-1,26,28,-1,-1,-1,-1,-1,-1,-1,-1,-1,-1,-1,-1,-1,-1],"split_conditions":[1.017E3,8.31094E0,1.796011E1,2.707357E1,2.8355286E2,1.357242E3,3.5723694E2,6.53734E0,2.0657452E2,9E-1,1.01E3,1.762694E1,4.327629E-2,5.053651E1,3.5763226E2,2.9976715E-3,4.276119E-2,2.67323E-2,9.541663E-2,1.3620402E-2,4.7549434E-2,3.7713747E-2,1.3730266E-2,-2.1414224E-2,2.101317E-2,-3.1582702E-2,-5.796326E-3,-4.5996727E-3,3.909092E-3],"split_indices":[5,0,4,6,4,7,4,0,4,1,5,4,0,3,4,0,0,0,0,0,0,0,0,0,0,0,0,0,0],"split_type":[0,0,0,0,0,0,0,0,0,0,0,0,0,0,0,0,0,0,0,0,0,0,0,0,0,0,0,0,0],"sum_hessian":[2.24E2,9.2E1,1.32E2,2.3E1,6.9E1,2E1,1.12E2,8E0,1.5E1,3.8E1,3.1E1,1.9E1,1E0,1.09E2,3E0,5E0,3E0,4E0,1.1E1,5E0,3.3E1,7E0,2.4E1,1.7E1,2E0,1.05E2,4E0,2E0,1E0],"tree_param":{"num_deleted":"0","num_feature":"10","num_nodes":"29","size_leaf_vector":"1"}},{"base_weights":[2.1798177E-2,9.865162E-1,-6.52943E-1,1.4746879E0,8.0504996E-1,-6.730504E-1,4.4272804E-1,5.091667E-1,1.9256256E0,1.0467397E0,4.853327E-1,-3.849964E-2,-6.05801E-1,-1.584709E-2,4.2410772E-2,2.8977585E-3,4.1478366E-2,2.587686E-2,9.191801E-2,6.018423E-2,3.347888E-2,3.6393758E-2,1.3203031E-2,-2.002105E-2,-3.418159E-2],"categories":[],"categories_nodes":[],"categories_segments":[],"categories_sizes":[],"default_left":[0,0,0,0,0,0,0,0,0,0,0,0,0,0,0,0,0,0,0,0,0,0,0,0,0],"id":21,"left_children":[1,3,5,7,9,11,13,15,17,19,21,-1,23,-1,-1,-1,-1,-1,-1,-1,-1,-1,-1,-1,-1],"loss_changes":[1.471045E2,7.051361E0,3.228115E0,9.468895E0,4.9010506E0,1.9667969E0,1.9742308E0,1.9993696E0,6.1308975E0,2.4864616E0,1.8087478E0,0E0,2.426548E0,0E0,0E0,0E0,0E0,0E0,0E0,0E0,0E0,0E0,0E0,0E0,0E0],"parents":[2147483647,0,0,1,1,2,2,3,3,4,4,5,5,6,6,7,7,8,8,9,9,10,10,12,12],"right_children":[2,4,6,8,10,12,14,16,18,20,22,-1,24,-1,-1,-1,-1,-1,-1,-1,-1,-1,-1,-1,-1],"split_conditions":[1.017E3,8.31094E0,2.2698938E3,2.707357E1,2.8355286E2,1.02E3,3.348788E1,6.53734E0,2.0657452E2,2.0913167E2,1.01E3,-3.849964E-2,3.2616312E2,-1.584709E-2,4.2410772E-2,2.8977585E-3,4.1478366E-2,2.587686E-2,9.191801E-2,6.018423E-2,3.347888E-2,3.6393758E-2,1.3203031E-2,-2.002105E-2,-3.418159E-2],"split_indices":[5,0,7,6,4,5,0,0,4,7,5,0,4,0,0,0,0,0,0,0,0,0,0,0,0],"split_type":[0,0,0,0,0,0,0,0,0,0,0,0,0,0,0,0,0,0,0,0,0,0,0,0,0],"sum_hessian":[2.24E2,9.2E1,1.32E2,2.3E1,6.9E1,1.3E2,2E0,8E0,1.5E1,3.8E1,3.1E1,2.2E1,1.08E2,1E0,1E0,5E0,3E0,4E0,1.1E1,1E1,2.8E1,7E0,2.4E1,7.8E1,3E1],"tree_param":{"num_deleted":"0","num_feature":"10","num_nodes":"25","size_leaf_vector":"1"}},{"base_weights":[2.1989949E-2,9.503398E-1,-6.273223E-1,1.4224575E0,7.7489465E-1,-2.5142238E-1,-6.916283E-1,4.9373055E-1,1.8559628E0,5.644983E-1,1.1310282E0,-3.678999E-1,4.1562557E-2,-7.101119E-1,-1.04215145E-2,2.8011512E-3,4.023402E-2,2.5048796E-2,8.854768E-2,1.8212594E-2,4.866008E-2,4.8078712E-2,-1.1430492E-2,-1.9848894E-2,2.098672E-2,-1.4247025E-2,-2.9992662E-2,-3.5655084E-3,4.5145415E-3],"categories":[],"categories_nodes":[],"categories_segments":[],"categories_sizes":[],"default_left":[0,0,0,0,0,0,0,0,0,0,0,0,0,0,0,0,0,0,0,0,0,0,0,0,0,0,0,0,0],"id":22,"left_children":[1,3,5,7,9,11,13,15,17,19,21,23,-1,25,27,-1,-1,-1,-1,-1,-1,-1,-1,-1,-1,-1,-1,-1,-1],"loss_changes":[1.3622368E2,6.601013E0,3.0410652E0,8.746246E0,4.606579E0,3.538837E0,1.4154015E0,1.8824368E0,5.6523857E0,2.7207575E0,2.856142E0,2.5510824E0,0E0,1.2787552E0,4.887852E-2,0E0,0E0,0E0,0E0,0E0,0E0,0E0,0E0,0E0,0E0,0E0,0E0,0E0,0E0],"parents":[2147483647,0,0,1,1,2,2,3,3,4,4,5,5,6,6,7,7,8,8,9,9,10,10,11,11,13,13,14,14],"right_children":[2,4,6,8,10,12,14,16,18,20,22,24,-1,26,28,-1,-1,-1,-1,-1,-1,-1,-1,-1,-1,-1,-1,-1,-1],"split_conditions":[1.017E3,8.31094E0,1.796011E1,2.707357E1,1.374378E1,1.357242E3,3.5723694E2,6.53734E0,2.0657452E2,5.296524E2,2.850873E1,1.762694E1,4.1562557E-2,7.20253E0,3.5763226E2,2.8011512E-3,4.023402E-2,2.5048796E-2,8.854768E-2,1.8212594E-2,4.866008E-2,4.8078712E-2,-1.1430492E-2,-1.9848894E-2,2.098672E-2,-1.4247025E-2,-2.9992662E-2,-3.5655084E-3,4.5145415E-3],"split_indices":[5,0,4,6,0,7,4,0,4,7,6,4,0,0,4,0,0,0,0,0,0,0,0,0,0,0,0,0,0],"split_type":[0,0,0,0,0,0,0,0,0,0,0,0,0,0,0,0,0,0,0,0,0,0,0,0,0,0,0,0,0],"sum_hessian":[2.24E2,9.2E1,1.32E2,2.3E1,6.9E1,2E1,1.12E2,8E0,1.5E1,4.5E1,2.4E1,1.9E1,1E0,1.09E2,3E0,5E0,3E0,4E0,1.1E1,4E1,5E0,2.3E1,1E0,1.7E1,2E0,1.2E1,9.7E1,2E0,1E0],"tree_param":{"num_deleted":"0","num_feature":"10","num_nodes":"29","size_leaf_vector":"1"}},{"base_weights":[2.2264192E-2,9.151237E-1,-6.022335E-1,1.3720855E0,7.453779E-1,-6.2127566E-1,4.3001714E-1,4.7876325E-1,1.7888238E0,9.749258E-1,4.423234E-1,-3.5879042E-2,-5.574006E-1,-1.4930286E-2,4.0731315E-2,2.7077864E-3,3.9027013E-2,2.4247222E-2,8.530093E-2,5.6899022E-2,3.0861897E-2,3.402872E-2,1.1757767E-2,-1.8264463E-2,-3.1850774E-2],"categories":[],"categories_nodes":[],"categories_segments":[],"categories_sizes":[],"default_left":[0,0,0,0,0,0,0,0,0,0,0,0,0,0,0,0,0,0,0,0,0,0,0,0,0],"id":23,"left_children":[1,3,5,7,9,11,13,15,17,19,21,-1,23,-1,-1,-1,-1,-1,-1,-1,-1,-1,-1,-1,-1],"loss_changes":[1.2600858E2,6.19104E0,2.8814392E0,8.078335E0,4.4383583E0,1.8069878E0,1.7976975E0,1.7723367E0,5.210888E0,2.4523468E0,1.6890488E0,0E0,2.260624E0,0E0,0E0,0E0,0E0,0E0,0E0,0E0,0E0,0E0,0E0,0E0,0E0],"parents":[2147483647,0,0,1,1,2,2,3,3,4,4,5,5,6,6,7,7,8,8,9,9,10,10,12,12],"right_children":[2,4,6,8,10,12,14,16,18,20,22,-1,24,-1,-1,-1,-1,-1,-1,-1,-1,-1,-1,-1,-1],"split_conditions":[1.017E3,8.31094E0,2.2698938E3,2.707357E1,2.8355286E2,1.02E3,3.348788E1,6.53734E0,2.0657452E2,2.0913167E2,1.01E3,-3.5879042E-2,3.2616312E2,-1.4930286E-2,4.0731315E-2,2.7077864E-3,3.9027013E-2,2.4247222E-2,8.530093E-2,5.6899022E-2,3.0861897E-2,3.402872E-2,1.1757767E-2,-1.8264463E-2,-3.1850774E-2],"split_indices":[5,0,7,6,4,5,0,0,4,7,5,0,4,0,0,0,0,0,0,0,0,0,0,0,0],"split_type":[0,0,0,0,0,0,0,0,0,0,0,0,0,0,0,0,0,0,0,0,0,0,0,0,0],"sum_hessian":[2.24E2,9.2E1,1.32E2,2.3E1,6.9E1,1.3E2,2E0,8E0,1.5E1,3.8E1,3.1E1,2.2E1,1.08E2,1E0,1E0,5E0,3E0,4E0,1.1E1,1E1,2.8E1,7E0,2.4E1,7.8E1,3E1],"tree_param":{"num_deleted":"0","num_feature":"10","num_nodes":"25","size_leaf_vector":"1"}},{"base_weights":[2.2372102E-2,8.8158137E-1,-5.785966E-1,1.3235054E0,7.174706E-1,-2.2474648E-1,-6.3923603E-1,1.8083221E0,5.8614725E-1,5.172629E-1,1.0571539E0,-3.3577552E-1,3.9916687E-2,-5.3746134E-1,-7.9241663E-1,3.3044085E-2,9.766897E-2,-2.9481028E-3,3.371215E-2,1.7216269E-2,5.2866038E-2,4.5033004E-2,-1.1819114E-2,-2.0625183E-2,1.2276504E-2,-2.5585992E-2,-1.2935902E-3,-3.2786284E-2,7.033615E-3],"categories":[],"categories_nodes":[],"categories_segments":[],"categories_sizes":[],"default_left":[0,0,0,0,0,0,0,0,0,0,0,0,0,0,0,0,0,0,0,0,0,0,0,0,0,0,0,0,0],"id":24,"left_children":[1,3,5,7,9,11,13,15,17,19,21,23,-1,25,27,-1,-1,-1,-1,-1,-1,-1,-1,-1,-1,-1,-1,-1,-1],"loss_changes":[1.16690605E2,5.795204E0,2.7101479E0,7.519661E0,4.2136765E0,3.185851E0,1.3357697E0,6.692852E0,1.925019E0,2.6449919E0,2.654829E0,2.4700549E0,0E0,3.6441631E0,1.278286E0,0E0,0E0,0E0,0E0,0E0,0E0,0E0,0E0,0E0,0E0,0E0,0E0,0E0,0E0],"parents":[2147483647,0,0,1,1,2,2,3,3,4,4,5,5,6,6,7,7,8,8,9,9,10,10,11,11,13,13,14,14],"right_children":[2,4,6,8,10,12,14,16,18,20,22,24,-1,26,28,-1,-1,-1,-1,-1,-1,-1,-1,-1,-1,-1,-1,-1,-1],"split_conditions":[1.017E3,8.31094E0,1.796011E1,1.2E0,1.374378E1,1.357242E3,1.846109E1,1.1169746E2,4.66485E0,5.55875E2,2.850873E1,1.748664E1,3.9916687E-2,1.764904E1,1.024E3,3.3044085E-2,9.766897E-2,-2.9481028E-3,3.371215E-2,1.7216269E-2,5.2866038E-2,4.5033004E-2,-1.1819114E-2,-2.0625183E-2,1.2276504E-2,-2.5585992E-2,-1.2935902E-3,-3.2786284E-2,7.033615E-3],"split_indices":[5,0,4,1,0,7,6,7,3,7,6,6,0,6,5,0,0,0,0,0,0,0,0,0,0,0,0,0,0],"split_type":[0,0,0,0,0,0,0,0,0,0,0,0,0,0,0,0,0,0,0,0,0,0,0,0,0,0,0,0,0],"sum_hessian":[2.24E2,9.2E1,1.32E2,2.3E1,6.9E1,2E1,1.12E2,1.3E1,1E1,4.5E1,2.4E1,1.9E1,1E0,7E1,4.2E1,6E0,7E0,3E0,7E0,4.2E1,3E0,2.3E1,1E0,1.5E1,4E0,5.8E1,1.2E1,4.1E1,1E0],"tree_param":{"num_deleted":"0","num_feature":"10","num_nodes":"29","size_leaf_vector":"1"}},{"base_weights":[2.2560272E-2,8.8020873E-1,-5.347629E-1,1.2295625E0,7.082392E-1,-2.8299466E-1,-6.1512333E-1,1.3982466E0,1.7396602E-1,1.3023912E0,5.2402765E-1,2.3242384E-2,-4.1322938E-1,-6.3466656E-1,2.7237177E-2,1.8763797E-2,6.727612E-2,-1.7740363E-2,1.7568482E-2,5.453873E-4,5.6019094E-2,2.3815092E-2,-1.7100038E-2,2.2950172E-2,-2.0043274E-2,-2.6531806E-2,-6.382326E-3,-1.938769E-3,5.0871274E-3],"categories":[],"categories_nodes":[],"categories_segments":[],"categories_sizes":[],"default_left":[0,0,0,0,0,0,0,0,0,0,0,0,0,0,0,0,0,0,0,0,0,0,0,0,0,0,0,0,0],"id":25,"left_children":[1,3,5,7,9,11,13,15,17,19,21,-1,23,25,27,-1,-1,-1,-1,-1,-1,-1,-1,-1,-1,-1,-1,-1,-1],"loss_changes":[1.0801787E2,4.4761276E0,2.5977364E0,4.7425003E0,6.103388E0,4.1786566E0,1.3103256E0,5.5364685E0,1.0137087E0,1.7506351E0,3.5811977E0,0E0,2.9754753E0,1.2543335E0,3.642893E-2,0E0,0E0,0E0,0E0,0E0,0E0,0E0,0E0,0E0,0E0,0E0,0E0,0E0,0E0],"parents":[2147483647,0,0,1,1,2,2,3,3,4,4,5,5,6,6,7,7,8,8,9,9,10,10,12,12,13,13,14,14],"right_children":[2,4,6,8,10,12,14,16,18,20,22,-1,24,26,28,-1,-1,-1,-1,-1,-1,-1,-1,-1,-1,-1,-1,-1,-1],"split_conditions":[1.016E3,2.0913167E2,3.444176E1,1.013E3,2.1567673E2,7.72637E0,3.5723694E2,1.0657128E2,1.066988E1,1.009E3,1.689144E1,2.3242384E-2,1.156152E1,2.360017E1,3.5763226E2,1.8763797E-2,6.727612E-2,-1.7740363E-2,1.7568482E-2,5.453873E-4,5.6019094E-2,2.3815092E-2,-1.7100038E-2,2.2950172E-2,-2.0043274E-2,-2.6531806E-2,-6.382326E-3,-1.938769E-3,5.0871274E-3],"split_indices":[5,7,4,5,4,0,4,7,0,5,0,0,6,6,4,0,0,0,0,0,0,0,0,0,0,0,0,0,0],"split_type":[0,0,0,0,0,0,0,0,0,0,0,0,0,0,0,0,0,0,0,0,0,0,0,0,0,0,0,0,0],"sum_hessian":[2.24E2,8.8E1,1.36E2,2.7E1,6.1E1,3.4E1,1.02E2,2.3E1,4E0,1.3E1,4.8E1,4E0,3E1,9.9E1,3E0,6E0,1.7E1,1E0,3E0,1E0,1.2E1,4.5E1,3E0,2E0,2.8E1,9.3E1,6E0,2E0,1E0],"tree_param":{"num_deleted":"0","num_feature":"10","num_nodes":"29","size_leaf_vector":"1"}},{"base_weights":[2.2304848E-2,8.170306E-1,-5.335733E-1,1.2353032E0,6.61951E-1,-5.512387E-1,4.1567102E-1,1.7002639E0,5.312347E-1,4.737926E-1,9.8168445E-1,-2.4431975E-1,-5.9486413E-1,-1.3719082E-2,3.865934E-2,3.0436188E-2,9.23868E-2,-3.5741234E-3,3.1004967E-2,1.55701395E-2,5.0565604E-2,7.257557E-2,3.142646E-2,-4.0327147E-2,-9.7344205E-4,-2.4998957E-2,-8.76899E-3],"categories":[],"categories_nodes":[],"categories_segments":[],"categories_sizes":[],"default_left":[0,0,0,0,0,0,0,0,0,0,0,0,0,0,0,0,0,0,0,0,0,0,0,0,0,0,0],"id":26,"left_children":[1,3,5,7,9,11,13,15,17,19,21,23,25,-1,-1,-1,-1,-1,-1,-1,-1,-1,-1,-1,-1,-1,-1],"loss_changes":[9.983436E1,5.2147865E0,2.4593773E0,6.9535027E0,3.7461224E0,1.6086845E0,1.5851004E0,6.2568817E0,1.7341628E0,2.5814323E0,2.6552334E0,3.000122E0,1.1523781E0,0E0,0E0,0E0,0E0,0E0,0E0,0E0,0E0,0E0,0E0,0E0,0E0,0E0,0E0],"parents":[2147483647,0,0,1,1,2,2,3,3,4,4,5,5,6,6,7,7,8,8,9,9,10,10,11,11,12,12],"right_children":[2,4,6,8,10,12,14,16,18,20,22,24,26,-1,-1,-1,-1,-1,-1,-1,-1,-1,-1,-1,-1,-1,-1],"split_conditions":[1.017E3,8.31094E0,2.2698938E3,1.2E0,1.374378E1,7.97704E0,3.348788E1,1.1169746E2,4.66485E0,5.55875E2,1.7942287E2,1.367759E2,6.192841E1,-1.3719082E-2,3.865934E-2,3.0436188E-2,9.23868E-2,-3.5741234E-3,3.1004967E-2,1.55701395E-2,5.0565604E-2,7.257557E-2,3.142646E-2,-4.0327147E-2,-9.7344205E-4,-2.4998957E-2,-8.76899E-3],"split_indices":[5,0,7,1,0,0,0,7,3,7,7,7,0,0,0,0,0,0,0,0,0,0,0,0,0,0,0],"split_type":[0,0,0,0,0,0,0,0,0,0,0,0,0,0,0,0,0,0,0,0,0,0,0,0,0,0,0],"sum_hessian":[2.24E2,9.2E1,1.32E2,2.3E1,6.9E1,1.3E2,2E0,1.3E1,1E1,4.5E1,2.4E1,1.7E1,1.13E2,1E0,1E0,6E0,7E0,3E0,7E0,4.2E1,3E0,3E0,2.1E1,3E0,1.4E1,1.04E2,9E0],"tree_param":{"num_deleted":"0","num_feature":"10","num_nodes":"27","size_leaf_vector":"1"}},{"base_weights":[2.2613775E-2,8.169995E-1,-4.9361208E-1,1.1459457E0,6.5526575E-1,-2.5244367E-1,-5.7077014E-1,1.3054062E0,1.5134582E-1,1.2219929E0,4.7997096E-1,2.227397E-2,-3.7483144E-1,-4.0862203E-2,-5.3235507E-1,1.73318E-2,6.288152E-2,-1.7696952E-2,1.6415767E-2,-8.562088E-5,5.2652862E-2,2.197527E-2,-1.7529821E-2,2.2156028E-2,-1.8319279E-2,-2.7578056E-2,-1.483582E-2],"categories":[],"categories_nodes":[],"categories_segments":[],"categories_sizes":[],"default_left":[0,0,0,0,0,0,0,0,0,0,0,0,0,0,0,0,0,0,0,0,0,0,0,0,0,0,0],"id":27,"left_children":[1,3,5,7,9,11,13,15,17,19,21,-1,23,-1,25,-1,-1,-1,-1,-1,-1,-1,-1,-1,-1,-1,-1],"loss_changes":[9.267184E1,3.9840508E0,2.40522E0,4.2432175E0,5.5728264E0,3.6753898E0,1.2398186E0,4.8996277E0,9.506434E-1,1.6194115E0,3.3637362E0,0E0,2.6476378E0,0E0,2.2046585E0,0E0,0E0,0E0,0E0,0E0,0E0,0E0,0E0,0E0,0E0,0E0,0E0],"parents":[2147483647,0,0,1,1,2,2,3,3,4,4,5,5,6,6,7,7,8,8,9,9,10,10,12,12,14,14],"right_children":[2,4,6,8,10,12,14,16,18,20,22,-1,24,-1,26,-1,-1,-1,-1,-1,-1,-1,-1,-1,-1,-1,-1],"split_conditions":[1.016E3,2.0913167E2,3.444176E1,1.013E3,2.1567673E2,7.72637E0,1.367759E2,1.0657128E2,1.066988E1,1.009E3,1.689144E1,2.227397E-2,1.156152E1,-4.0862203E-2,6E-1,1.73318E-2,6.288152E-2,-1.7696952E-2,1.6415767E-2,-8.562088E-5,5.2652862E-2,2.197527E-2,-1.7529821E-2,2.2156028E-2,-1.8319279E-2,-2.7578056E-2,-1.483582E-2],"split_indices":[5,7,4,5,4,0,7,7,0,5,0,0,6,0,1,0,0,0,0,0,0,0,0,0,0,0,0],"split_type":[0,0,0,0,0,0,0,0,0,0,0,0,0,0,0,0,0,0,0,0,0,0,0,0,0,0,0],"sum_hessian":[2.24E2,8.8E1,1.36E2,2.7E1,6.1E1,3.4E1,1.02E2,2.3E1,4E0,1.3E1,4.8E1,4E0,3E1,6E0,9.6E1,6E0,1.7E1,1E0,3E0,1E0,1.2E1,4.5E1,3E0,2E0,2.8E1,4.7E1,4.9E1],"tree_param":{"num_deleted":"0","num_feature":"10","num_nodes":"27","size_leaf_vector":"1"}},{"base_weights":[2.205922E-2,7.8584677E-1,-4.7428498E-1,1.1531154E0,6.480405E-1,-2.416E-1,-5.4874796E-1,1.598971E0,4.1360608E-1,4.780567E-1,9.1449094E-1,2.1561202E-2,-3.5971454E-1,-3.9461218E-2,-5.114982E-1,2.801756E-2,8.74126E-2,-4.1261576E-3,2.5992436E-2,2.1747136E-2,-1.1906977E-2,6.9977455E-2,2.8844595E-2,2.1565208E-2,-1.7611781E-2,-2.6497902E-2,-1.4254274E-2],"categories":[],"categories_nodes":[],"categories_segments":[],"categories_sizes":[],"default_left":[0,0,0,0,0,0,0,0,0,0,0,0,0,0,0,0,0,0,0,0,0,0,0,0,0,0,0],"id":28,"left_children":[1,3,5,7,9,11,13,15,17,19,21,-1,23,-1,25,-1,-1,-1,-1,-1,-1,-1,-1,-1,-1,-1,-1],"loss_changes":[8.5670555E1,3.7571945E0,2.2411404E0,6.9220886E0,2.5974007E0,3.421028E0,1.1750412E0,5.8452034E0,1.287643E0,2.3507462E0,2.7749176E0,0E0,2.4826717E0,0E0,2.0355263E0,0E0,0E0,0E0,0E0,0E0,0E0,0E0,0E0,0E0,0E0,0E0,0E0],"parents":[2147483647,0,0,1,1,2,2,3,3,4,4,5,5,6,6,7,7,8,8,9,9,10,10,12,12,14,14],"right_children":[2,4,6,8,10,12,14,16,18,20,22,-1,24,-1,26,-1,-1,-1,-1,-1,-1,-1,-1,-1,-1,-1,-1],"split_conditions":[1.016E3,8.31094E0,3.444176E1,1.2E0,1.374378E1,7.72637E0,1.367759E2,1.1169746E2,4.66485E0,1.368123E1,1.18824E1,2.1561202E-2,1.156152E1,-3.9461218E-2,6E-1,2.801756E-2,8.74126E-2,-4.1261576E-3,2.5992436E-2,2.1747136E-2,-1.1906977E-2,6.9977455E-2,2.8844595E-2,2.1565208E-2,-1.7611781E-2,-2.6497902E-2,-1.4254274E-2],"split_indices":[5,0,4,1,0,0,7,7,3,0,3,0,6,0,1,0,0,0,0,0,0,0,0,0,0,0,0],"split_type":[0,0,0,0,0,0,0,0,0,0,0,0,0,0,0,0,0,0,0,0,0,0,0,0,0,0,0],"sum_hessian":[2.24E2,8.8E1,1.36E2,2.2E1,6.6E1,3.4E1,1.02E2,1.3E1,9E0,4.2E1,2.4E1,4E0,3E1,6E0,9.6E1,6E0,7E0,3E0,6E0,3.9E1,3E0,3E0,2.1E1,2E0,2.8E1,4.7E1,4.9E1],"tree_param":{"num_deleted":"0","num_feature":"10","num_nodes":"27","size_leaf_vector":"1"}},{"base_weights":[2.202678E-2,7.310114E-1,-4.7389498E-1,1.1135975E0,5.89396E-1,-4.9039936E-1,4.047607E-1,1.5432569E0,4.6552232E-1,7.8432584E-1,3.334066E-1,-7.351017E-1,-4.3426585E-1,-1.2726096E-2,3.7011735E-2,2.7056944E-2,8.435315E-2,-4.002361E-3,2.7604908E-2,4.7810763E-2,2.4056204E-2,2.8866824E-2,7.833034E-3,-3.1073617E-2,-1.3705301E-2,-1.3579668E-2,-2.647114E-2],"categories":[],"categories_nodes":[],"categories_segments":[],"categories_sizes":[],"default_left":[0,0,0,0,0,0,0,0,0,0,0,0,0,0,0,0,0,0,0,0,0,0,0,0,0,0,0],"id":29,"left_children":[1,3,5,7,9,11,13,15,17,19,21,23,25,-1,-1,-1,-1,-1,-1,-1,-1,-1,-1,-1,-1,-1,-1],"loss_changes":[7.945663E1,4.3823967E0,2.1272125E0,5.9644184E0,3.2314987E0,1.4801865E0,1.4232843E0,5.43713E0,1.4663806E0,2.2127914E0,1.5680435E0,1.105957E-1,2.1256256E0,0E0,0E0,0E0,0E0,0E0,0E0,0E0,0E0,0E0,0E0,0E0,0E0,0E0,0E0],"parents":[2147483647,0,0,1,1,2,2,3,3,4,4,5,5,6,6,7,7,8,8,9,9,10,10,11,11,12,12],"right_children":[2,4,6,8,10,12,14,16,18,20,22,24,26,-1,-1,-1,-1,-1,-1,-1,-1,-1,-1,-1,-1,-1,-1],"split_conditions":[1.017E3,8.31094E0,2.2698938E3,1.2E0,2.8355286E2,1.02E3,3.348788E1,1.1169746E2,4.66485E0,2.0913167E2,1.01E3,6.084E1,3.2616312E2,-1.2726096E-2,3.7011735E-2,2.7056944E-2,8.435315E-2,-4.002361E-3,2.7604908E-2,4.7810763E-2,2.4056204E-2,2.8866824E-2,7.833034E-3,-3.1073617E-2,-1.3705301E-2,-1.3579668E-2,-2.647114E-2],"split_indices":[5,0,7,1,4,5,0,7,3,7,5,0,4,0,0,0,0,0,0,0,0,0,0,0,0,0,0],"split_type":[0,0,0,0,0,0,0,0,0,0,0,0,0,0,0,0,0,0,0,0,0,0,0,0,0,0,0],"sum_hessian":[2.24E2,9.2E1,1.32E2,2.3E1,6.9E1,1.3E2,2E0,1.3E1,1E1,3.8E1,3.1E1,2.2E1,1.08E2,1E0,1E0,6E0,7E0,3E0,7E0,1E1,2.8E1,7E0,2.4E1,1.9E1,3E0,7.8E1,3E1],"tree_param":{"num_deleted":"0","num_feature":"10","num_nodes":"27","size_leaf_vector":"1"}},{"base_weights":[2.1959016E-2,7.043899E-1,-4.553946E-1,1.0746791E0,5.673709E-1,-4.7143114E-1,3.9666525E-1,1.4894844E0,4.490471E-1,3.9707455E-1,8.5802126E-1,-3.5339978E-2,-4.37447E-1,-1.247158E-2,3.6271494E-2,2.6129285E-2,8.1400774E-2,1.98356E-3,3.0946558E-2,1.2617585E-2,4.7015246E-2,6.6870786E-2,2.684264E-2,1.8059863E-3,-1.9601054E-2],"categories":[],"categories_nodes":[],"categories_segments":[],"categories_sizes":[],"default_left":[0,0,0,0,0,0,0,0,0,0,0,0,0,0,0,0,0,0,0,0,0,0,0,0,0],"id":30,"left_children":[1,3,5,7,9,11,13,15,17,19,21,-1,23,-1,-1,-1,-1,-1,-1,-1,-1,-1,-1,-1,-1],"loss_changes":[7.361697E1,4.1087685E0,2.004324E0,5.5595245E0,3.1240711E0,1.4480114E0,1.3669221E0,5.0575275E0,1.3880141E0,2.5519385E0,2.6814938E0,0E0,3.1432037E0,0E0,0E0,0E0,0E0,0E0,0E0,0E0,0E0,0E0,0E0,0E0,0E0],"parents":[2147483647,0,0,1,1,2,2,3,3,4,4,5,5,6,6,7,7,8,8,9,9,10,10,12,12],"right_children":[2,4,6,8,10,12,14,16,18,20,22,-1,24,-1,-1,-1,-1,-1,-1,-1,-1,-1,-1,-1,-1],"split_conditions":[1.017E3,8.31094E0,2.2698938E3,1.2E0,1.374378E1,1.399013E2,3.348788E1,1.1169746E2,6.53734E0,5.55875E2,1.18824E1,-3.5339978E-2,7.25704E0,-1.247158E-2,3.6271494E-2,2.6129285E-2,8.1400774E-2,1.98356E-3,3.0946558E-2,1.2617585E-2,4.7015246E-2,6.6870786E-2,2.684264E-2,1.8059863E-3,-1.9601054E-2],"split_indices":[5,0,7,1,0,7,0,7,0,7,3,0,0,0,0,0,0,0,0,0,0,0,0,0,0],"split_type":[0,0,0,0,0,0,0,0,0,0,0,0,0,0,0,0,0,0,0,0,0,0,0,0,0],"sum_hessian":[2.24E2,9.2E1,1.32E2,2.3E1,6.9E1,1.3E2,2E0,1.3E1,1E1,4.5E1,2.4E1,8E0,1.22E2,1E0,1E0,6E0,7E0,5E0,5E0,4.2E1,3E0,3E0,2.1E1,1.2E1,1.1E2],"tree_param":{"num_deleted":"0","num_feature":"10","num_nodes":"25","size_leaf_vector":"1"}},{"base_weights":[2.225602E-2,7.045648E-1,-4.2115813E-1,1.0000138E0,5.5977225E-1,-2.0670079E-1,-4.899431E-1,1.1460543E0,9.901734E-2,1.0933381E0,3.9590096E-1,-3.704289E-1,3.074503E-1,-5.0848335E-1,9.604907E-2,1.4165202E-2,5.5614203E-2,-1.818697E-2,1.4044351E-2,-1.1955261E-3,4.7281563E-2,1.8555457E-2,-1.9396266E-2,-1.8457178E-2,2.0455424E-2,-3.8541183E-3,2.5990538E-2,-2.1767283E-2,-5.311066E-3,4.635493E-4,6.9886018E-3],"categories":[],"categories_nodes":[],"categories_segments":[],"categories_sizes":[],"default_left":[0,0,0,0,0,0,0,0,0,0,0,0,0,0,0,0,0,0,0,0,0,0,0,0,0,0,0,0,0,0,0],"id":31,"left_children":[1,3,5,7,9,11,13,15,17,19,21,23,25,27,29,-1,-1,-1,-1,-1,-1,-1,-1,-1,-1,-1,-1,-1,-1,-1,-1],"loss_changes":[6.8369446E1,3.2475357E0,1.9196739E0,3.5708141E0,4.988186E0,3.0602229E0,1.1678772E0,4.15086E0,8.575447E-1,1.43017E0,3.1591644E0,2.4026E0,1.3066511E0,1.2689705E0,2.455189E-2,0E0,0E0,0E0,0E0,0E0,0E0,0E0,0E0,0E0,0E0,0E0,0E0,0E0,0E0,0E0,0E0],"parents":[2147483647,0,0,1,1,2,2,3,3,4,4,5,5,6,6,7,7,8,8,9,9,10,10,11,11,12,12,13,13,14,14],"right_children":[2,4,6,8,10,12,14,16,18,20,22,24,26,28,30,-1,-1,-1,-1,-1,-1,-1,-1,-1,-1,-1,-1,-1,-1,-1,-1],"split_conditions":[1.016E3,2.0913167E2,3.444176E1,1.013E3,2.1567673E2,1.748664E1,3.5723694E2,1.0657128E2,1.066988E1,1.009E3,1.689144E1,3.925863E1,6E-1,6.192841E1,3.5763226E2,1.4165202E-2,5.5614203E-2,-1.818697E-2,1.4044351E-2,-1.1955261E-3,4.7281563E-2,1.8555457E-2,-1.9396266E-2,-1.8457178E-2,2.0455424E-2,-3.8541183E-3,2.5990538E-2,-2.1767283E-2,-5.311066E-3,4.635493E-4,6.9886018E-3],"split_indices":[5,7,4,5,4,6,4,7,0,5,0,0,1,0,4,0,0,0,0,0,0,0,0,0,0,0,0,0,0,0,0],"split_type":[0,0,0,0,0,0,0,0,0,0,0,0,0,0,0,0,0,0,0,0,0,0,0,0,0,0,0,0,0,0,0],"sum_hessian":[2.24E2,8.8E1,1.36E2,2.7E1,6.1E1,3.4E1,1.02E2,2.3E1,4E0,1.3E1,4.8E1,2.6E1,8E0,9.9E1,3E0,6E0,1.7E1,1E0,3E0,1E0,1.2E1,4.5E1,3E0,2.4E1,2E0,4E0,4E0,9E1,9E0,2E0,1E0],"tree_param":{"num_deleted":"0","num_feature":"10","num_nodes":"31","size_leaf_vector":"1"}},{"base_weights":[2.1878734E-2,6.5401804E-1,-4.20308E-1,1.0029888E0,5.2502775E-1,-1.3311546E-1,-4.699605E-1,1.4007149E0,4.056113E-1,3.6440015E-1,7.995815E-1,-4.1389772E-1,2.8724957E-1,-3.5584733E-2,-4.381141E-1,2.4037192E-2,7.701749E-2,3.110842E-3,3.1338613E-2,1.1402412E-2,4.504812E-2,6.39374E-2,2.4719631E-2,1.5196939E-2,-2.3710694E-2,2.4533622E-2,-1.0947971E-2,-2.516506E-3,-1.9393828E-2],"categories":[],"categories_nodes":[],"categories_segments":[],"categories_sizes":[],"default_left":[0,0,0,0,0,0,0,0,0,0,0,0,0,0,0,0,0,0,0,0,0,0,0,0,0,0,0,0,0],"id":32,"left_children":[1,3,5,7,9,11,13,15,17,19,21,23,25,-1,27,-1,-1,-1,-1,-1,-1,-1,-1,-1,-1,-1,-1,-1,-1],"loss_changes":[6.3167698E1,3.659687E0,1.8339977E0,5.134079E0,2.7956963E0,2.5975442E0,1.1204453E0,4.71826E0,1.3017026E0,2.4592633E0,2.638794E0,2.0710826E0,1.814154E0,0E0,1.8456135E0,0E0,0E0,0E0,0E0,0E0,0E0,0E0,0E0,0E0,0E0,0E0,0E0,0E0,0E0],"parents":[2147483647,0,0,1,1,2,2,3,3,4,4,5,5,6,6,7,7,8,8,9,9,10,10,11,11,12,12,14,14],"right_children":[2,4,6,8,10,12,14,16,18,20,22,24,26,-1,28,-1,-1,-1,-1,-1,-1,-1,-1,-1,-1,-1,-1,-1,-1],"split_conditions":[1.017E3,8.31094E0,1.796011E1,1.2E0,1.374378E1,2.990033E1,1.367759E2,1.1169746E2,7.10414E0,5.55875E2,1.18824E1,7.25704E0,1E0,-3.5584733E-2,7.97704E0,2.4037192E-2,7.701749E-2,3.110842E-3,3.1338613E-2,1.1402412E-2,4.504812E-2,6.39374E-2,2.4719631E-2,1.5196939E-2,-2.3710694E-2,2.4533622E-2,-1.0947971E-2,-2.516506E-3,-1.9393828E-2],"split_indices":[5,0,4,1,0,0,7,7,0,7,3,0,9,0,0,0,0,0,0,0,0,0,0,0,0,0,0,0,0],"split_type":[0,0,0,0,0,0,0,0,0,0,0,0,0,0,0,0,0,0,0,0,0,0,0,0,0,0,0,0,0],"sum_hessian":[2.24E2,9.2E1,1.32E2,2.3E1,6.9E1,2E1,1.12E2,1.3E1,1E1,4.5E1,2.4E1,1.2E1,8E0,6E0,1.06E2,6E0,7E0,6E0,4E0,4.2E1,3E0,3E0,2.1E1,2E0,1E1,5E0,3E0,1.2E1,9.4E1],"tree_param":{"num_deleted":"0","num_feature":"10","num_nodes":"29","size_leaf_vector":"1"}},{"base_weights":[2.2017874E-2,6.541811E-1,-3.8881823E-1,9.358583E-1,5.164207E-1,-4.0316412E-1,3.8635287E-1,7.7424806E-1,8.098111E-2,1.0282294E0,3.596505E-1,-1.0620298E-1,-4.4794273E-1,-1.1465129E-2,3.46463E-2,4.052206E-2,4.4123507E-3,-1.2338257E-3,4.4482775E-2,1.7024757E-2,-1.955597E-2,-1.9482255E-2,1.4843393E-2,-1.862792E-2,1.716568E-3],"categories":[],"categories_nodes":[],"categories_segments":[],"categories_sizes":[],"default_left":[0,0,0,0,0,0,0,0,0,0,0,0,0,0,0,0,0,0,0,0,0,0,0,0,0],"id":33,"left_children":[1,3,5,7,9,11,13,15,-1,17,19,21,23,-1,-1,-1,-1,-1,-1,-1,-1,-1,-1,-1,-1],"loss_changes":[5.869034E1,2.9702568E0,1.6792736E0,3.3588352E0,4.6048527E0,1.747591E0,1.2169636E0,4.010577E0,0E0,1.2774038E0,2.950982E0,3.6344965E0,1.0396748E0,0E0,0E0,0E0,0E0,0E0,0E0,0E0,0E0,0E0,0E0,0E0,0E0],"parents":[2147483647,0,0,1,1,2,2,3,3,4,4,5,5,6,6,7,7,9,9,10,10,11,11,12,12],"right_children":[2,4,6,8,10,12,14,16,-1,18,20,22,24,-1,-1,-1,-1,-1,-1,-1,-1,-1,-1,-1,-1],"split_conditions":[1.016E3,2.0913167E2,2.2698938E3,1.55012E1,2.1567673E2,7.97704E0,3.348788E1,9.89332E0,8.098111E-2,1.009E3,1.689144E1,5.35294E0,5.053651E1,-1.1465129E-2,3.46463E-2,4.052206E-2,4.4123507E-3,-1.2338257E-3,4.4482775E-2,1.7024757E-2,-1.955597E-2,-1.9482255E-2,1.4843393E-2,-1.862792E-2,1.716568E-3],"split_indices":[5,7,7,0,4,0,0,3,0,5,0,3,3,0,0,0,0,0,0,0,0,0,0,0,0],"split_type":[0,0,0,0,0,0,0,0,0,0,0,0,0,0,0,0,0,0,0,0,0,0,0,0,0],"sum_hessian":[2.24E2,8.8E1,1.36E2,2.7E1,6.1E1,1.34E2,2E0,2.5E1,2E0,1.3E1,4.8E1,1.8E1,1.16E2,1E0,1E0,1.8E1,7E0,1E0,1.2E1,4.5E1,3E0,1E1,8E0,1.12E2,4E0],"tree_param":{"num_deleted":"0","num_feature":"10","num_nodes":"25","size_leaf_vector":"1"}},{"base_weights":[2.1885088E-2,6.08066E-1,-3.8816538E-1,3.806991E-1,7.8001493E-1,-1.1226381E-1,-4.3600404E-1,8.848981E-1,1.4952292E-1,1.090642E0,5.1586705E-1,-3.806704E-1,2.8790835E-1,-4.0095887E-1,-7.9641944E-1,3.930759E-3,3.7690457E-2,1.0104297E-3,1.5820846E-2,2.5349945E-2,6.12583E-2,4.1178945E-2,9.869096E-3,1.5311228E-2,-2.2171117E-2,2.3981621E-2,-1.0060682E-2,-2.1163864E-2,-1.0610233E-2,-5.473709E-4,-3.570203E-2],"categories":[],"categories_nodes":[],"categories_segments":[],"categories_sizes":[],"default_left":[0,0,0,0,0,0,0,0,0,0,0,0,0,0,0,0,0,0,0,0,0,0,0,0,0,0,0,0,0,0,0],"id":34,"left_children":[1,3,5,7,9,11,13,15,17,19,21,23,25,27,29,-1,-1,-1,-1,-1,-1,-1,-1,-1,-1,-1,-1,-1,-1,-1,-1],"loss_changes":[5.431788E1,3.3389282E0,1.7064857E0,4.763158E0,3.704052E0,2.3651838E0,1.1079502E0,4.9401283E-1,9.070571E-1,3.661768E0,3.8929577E0,1.9351981E0,1.6637157E0,1.6854668E0,6.649947E-1,0E0,0E0,0E0,0E0,0E0,0E0,0E0,0E0,0E0,0E0,0E0,0E0,0E0,0E0,0E0,0E0],"parents":[2147483647,0,0,1,1,2,2,3,3,4,4,5,5,6,6,7,7,8,8,9,9,10,10,11,11,12,12,13,13,14,14],"right_children":[2,4,6,8,10,12,14,16,18,20,22,24,26,28,30,-1,-1,-1,-1,-1,-1,-1,-1,-1,-1,-1,-1,-1,-1,-1,-1],"split_conditions":[1.017E3,2.62368E1,1.796011E1,4.796957E1,9.72841E0,2.990033E1,1.8E0,6.13097E0,1.225479E1,2.5810364E2,2.0913167E2,7.25704E0,1E0,6E-1,1.248939E1,3.930759E-3,3.7690457E-2,1.0104297E-3,1.5820846E-2,2.5349945E-2,6.12583E-2,4.1178945E-2,9.869096E-3,1.5311228E-2,-2.2171117E-2,2.3981621E-2,-1.0060682E-2,-2.1163864E-2,-1.0610233E-2,-5.473709E-4,-3.570203E-2],"split_indices":[5,6,4,4,0,0,2,4,3,4,7,0,9,1,6,0,0,0,0,0,0,0,0,0,0,0,0,0,0,0,0],"split_type":[0,0,0,0,0,0,0,0,0,0,0,0,0,0,0,0,0,0,0,0,0,0,0,0,0,0,0,0,0,0,0],"sum_hessian":[2.24E2,9.2E1,1.32E2,4.1E1,5.1E1,2E1,1.12E2,1.2E1,2.9E1,2.2E1,2.9E1,1.2E1,8E0,1.04E2,8E0,1E0,1.1E1,2E1,9E0,1.2E1,1E1,9E0,2E1,2E0,1E1,5E0,3E0,5.2E1,5.2E1,1E0,7E0],"tree_param":{"num_deleted":"0","num_feature":"10","num_nodes":"31","size_leaf_vector":"1"}},{"base_weights":[2.161046E-2,6.071314E-1,-3.589222E-1,7.32087E-1,3.4972784E-1,-1.632437E-1,-4.2193022E-1,1.3759956E-1,8.3634275E-1,1.2422003E-1,7.484493E-1,-3.1086457E-1,2.9775703E-1,-3.3347573E-2,-3.8786584E-1,-1.2084051E-2,2.5508828E-2,5.3794622E-2,2.4852993E-2,-2.0266788E-3,1.2866497E-2,4.0806342E-2,7.1674347E-4,-1.5748901E-2,1.9329619E-2,-3.1111222E-3,2.454963E-2,-2.087363E-2,-1.0059703E-2],"categories":[],"categories_nodes":[],"categories_segments":[],"categories_sizes":[],"default_left":[0,0,0,0,0,0,0,0,0,0,0,0,0,0,0,0,0,0,0,0,0,0,0,0,0,0,0,0,0],"id":35,"left_children":[1,3,5,7,9,11,13,15,17,19,21,23,25,-1,27,-1,-1,-1,-1,-1,-1,-1,-1,-1,-1,-1,-1,-1,-1],"loss_changes":[5.0350132E1,2.6065674E0,1.6202393E0,3.5416641E0,2.6943865E0,2.4744284E0,1.1213493E0,2.391693E0,4.6314735E0,7.4143004E-1,2.165132E0,1.9668078E0,1.115702E0,0E0,1.6410093E0,0E0,0E0,0E0,0E0,0E0,0E0,0E0,0E0,0E0,0E0,0E0,0E0,0E0,0E0],"parents":[2147483647,0,0,1,1,2,2,3,3,4,4,5,5,6,6,7,7,8,8,9,9,10,10,11,11,12,12,14,14],"right_children":[2,4,6,8,10,12,14,16,18,20,22,24,26,-1,28,-1,-1,-1,-1,-1,-1,-1,-1,-1,-1,-1,-1,-1,-1],"split_conditions":[1.016E3,2.944973E2,3.444176E1,9E-1,2.62368E1,1.748664E1,1.367759E2,1.01E3,1.2E0,3.2756552E2,3.9716504E2,3.925863E1,6E-1,-3.3347573E-2,6E-1,-1.2084051E-2,2.5508828E-2,5.3794622E-2,2.4852993E-2,-2.0266788E-3,1.2866497E-2,4.0806342E-2,7.1674347E-4,-1.5748901E-2,1.9329619E-2,-3.1111222E-3,2.454963E-2,-2.087363E-2,-1.0059703E-2],"split_indices":[5,4,4,1,6,6,7,5,1,4,7,0,1,0,1,0,0,0,0,0,0,0,0,0,0,0,0,0,0],"split_type":[0,0,0,0,0,0,0,0,0,0,0,0,0,0,0,0,0,0,0,0,0,0,0,0,0,0,0,0,0],"sum_hessian":[2.24E2,8.8E1,1.36E2,5.8E1,3E1,3.4E1,1.02E2,9E0,4.9E1,2E1,1E1,2.6E1,8E0,6E0,9.6E1,5E0,4E0,1.3E1,3.6E1,1.1E1,9E0,7E0,3E0,2.4E1,2E0,4E0,4E0,4.7E1,4.9E1],"tree_param":{"num_deleted":"0","num_feature":"10","num_nodes":"29","size_leaf_vector":"1"}},{"base_weights":[2.1213481E-2,5.642251E-1,-3.5864586E-1,8.7589455E-1,4.4930664E-1,-3.7552544E-1,2.7960157E-1,1.2395755E0,3.3340117E-1,3.044588E-1,6.978544E-1,-3.3308405E-1,-7.0339096E-1,-1.7865022E-1,3.3087138E-2,1.9473769E-2,6.973074E-2,1.0352925E-3,2.7889892E-2,8.434038E-3,3.573477E-2,5.9224814E-2,2.0952506E-2,-1.4534831E-2,2.4534369E-2,-2.9551314E-2,-4.865913E-3,-1.049757E-2,-2.2144317E-4],"categories":[],"categories_nodes":[],"categories_segments":[],"categories_sizes":[],"default_left":[0,0,0,0,0,0,0,0,0,0,0,0,0,0,0,0,0,0,0,0,0,0,0,0,0,0,0,0,0],"id":36,"left_children":[1,3,5,7,9,11,13,15,17,19,21,23,25,27,-1,-1,-1,-1,-1,-1,-1,-1,-1,-1,-1,-1,-1,-1,-1],"loss_changes":[4.6612663E1,2.937397E0,1.5378513E0,4.3217907E0,2.307644E0,1.5746689E0,1.1514881E0,4.4593353E0,1.2127388E0,2.347457E0,2.6302814E0,3.576645E0,1.9837523E-1,4.206232E-2,0E0,0E0,0E0,0E0,0E0,0E0,0E0,0E0,0E0,0E0,0E0,0E0,0E0,0E0,0E0],"parents":[2147483647,0,0,1,1,2,2,3,3,4,4,5,5,6,6,7,7,8,8,9,9,10,10,11,11,12,12,13,13],"right_children":[2,4,6,8,10,12,14,16,18,20,22,24,26,28,-1,-1,-1,-1,-1,-1,-1,-1,-1,-1,-1,-1,-1,-1,-1],"split_conditions":[1.017E3,8.31094E0,1.5248203E3,1.2E0,1.374378E1,7.10108E2,3.565296E1,1.1169746E2,7.10414E0,5.296524E2,1.18824E1,6.70216E2,3.925863E1,3.348788E1,3.3087138E-2,1.9473769E-2,6.973074E-2,1.0352925E-3,2.7889892E-2,8.434038E-3,3.573477E-2,5.9224814E-2,2.0952506E-2,-1.4534831E-2,2.4534369E-2,-2.9551314E-2,-4.865913E-3,-1.049757E-2,-2.2144317E-4],"split_indices":[5,0,7,1,0,7,0,7,0,7,3,7,0,0,0,0,0,0,0,0,0,0,0,0,0,0,0,0,0],"split_type":[0,0,0,0,0,0,0,0,0,0,0,0,0,0,0,0,0,0,0,0,0,0,0,0,0,0,0,0,0],"sum_hessian":[2.24E2,9.2E1,1.32E2,2.3E1,6.9E1,1.29E2,3E0,1.3E1,1E1,4.5E1,2.4E1,1.16E2,1.3E1,2E0,1E0,6E0,7E0,6E0,4E0,4E1,5E0,3E0,2.1E1,1.13E2,3E0,1.2E1,1E0,1E0,1E0],"tree_param":{"num_deleted":"0","num_feature":"10","num_nodes":"29","size_leaf_vector":"1"}},{"base_weights":[2.1433517E-2,5.642077E-1,-3.3132803E-1,8.1644756E-1,4.4119278E-1,-2.9451763E-2,-3.0050617E-1,6.6227055E-1,7.521995E-2,9.1310185E-1,2.9735768E-1,1.4742716E-1,-3.519765E-1,3.520633E-2,2.4801397E-3,-2.2339057E-3,3.9677296E-2,-1.697046E-2,1.4837185E-2,1.5162188E-2,-3.3129018E-2,6.8538217E-3,-1.5083728E-2],"categories":[],"categories_nodes":[],"categories_segments":[],"categories_sizes":[],"default_left":[0,0,0,0,0,0,0,0,0,0,0,0,0,0,0,0,0,0,0,0,0,0,0],"id":37,"left_children":[1,3,5,7,9,-1,11,13,-1,15,17,19,21,-1,-1,-1,-1,-1,-1,-1,-1,-1,-1],"loss_changes":[4.326766E1,2.401394E0,1.4887457E0,3.3480644E0,3.936862E0,0E0,3.026022E0,3.3459864E0,0E0,1.1247578E0,2.7588272E0,3.4777749E0,1.5893335E0,0E0,0E0,0E0,0E0,0E0,0E0,0E0,0E0,0E0,0E0],"parents":[2147483647,0,0,1,1,2,2,3,3,4,4,6,6,7,7,9,9,10,10,11,11,12,12],"right_children":[2,4,6,8,10,-1,12,14,-1,16,18,20,22,-1,-1,-1,-1,-1,-1,-1,-1,-1,-1],"split_conditions":[1.016E3,2.0913167E2,1.399013E2,1.55012E1,2.1567673E2,-2.9451763E-2,7.72637E0,9.89332E0,7.521995E-2,1.009E3,2.2106233E2,3.2616312E2,1.179242E1,3.520633E-2,2.4801397E-3,-2.2339057E-3,3.9677296E-2,-1.697046E-2,1.4837185E-2,1.5162188E-2,-3.3129018E-2,6.8538217E-3,-1.5083728E-2],"split_indices":[5,7,7,0,4,0,0,3,0,5,7,4,6,0,0,0,0,0,0,0,0,0,0],"split_type":[0,0,0,0,0,0,0,0,0,0,0,0,0,0,0,0,0,0,0,0,0,0,0],"sum_hessian":[2.24E2,8.8E1,1.36E2,2.7E1,6.1E1,8E0,1.28E2,2.5E1,2E0,1.3E1,4.8E1,1.3E1,1.15E2,1.8E1,7E0,1E0,1.2E1,4E0,4.4E1,1.1E1,2E0,5E0,1.1E2],"tree_param":{"num_deleted":"0","num_feature":"10","num_nodes":"23","size_leaf_vector":"1"}},{"base_weights":[2.0987269E-2,5.245826E-1,-3.3130863E-1,3.0267435E-1,6.6579574E-1,-8.002595E-2,-3.7507525E-1,7.086993E-1,1.11008644E-1,8.645328E-1,3.8478035E-1,-3.3166403E-1,2.9234302E-1,-3.413888E-1,-7.264091E-1,2.1424866E-3,3.0535515E-2,-1.0300699E-3,1.384306E-2,1.4200164E-2,4.6099994E-2,-5.3478074E-3,2.546533E-2,1.4600347E-2,-1.9660575E-2,2.3483612E-2,-8.914547E-3,-1.6057821E-2,-3.8625402E-3,-5.894229E-3,-3.4832083E-2],"categories":[],"categories_nodes":[],"categories_segments":[],"categories_sizes":[],"default_left":[0,0,0,0,0,0,0,0,0,0,0,0,0,0,0,0,0,0,0,0,0,0,0,0,0,0,0,0,0,0,0],"id":38,"left_children":[1,3,5,7,9,11,13,15,17,19,21,23,25,27,29,-1,-1,-1,-1,-1,-1,-1,-1,-1,-1,-1,-1,-1,-1,-1,-1],"loss_changes":[4.009208E1,2.7127628E0,1.4326916E0,2.878528E0,2.7948437E0,2.064706E0,1.0893888E0,3.890543E-1,8.769072E-1,4.2861366E0,3.3496041E0,1.627131E0,1.4975431E0,1.5050917E0,6.2418413E-1,0E0,0E0,0E0,0E0,0E0,0E0,0E0,0E0,0E0,0E0,0E0,0E0,0E0,0E0,0E0,0E0],"parents":[2147483647,0,0,1,1,2,2,3,3,4,4,5,5,6,6,7,7,8,8,9,9,10,10,11,11,12,12,13,13,14,14],"right_children":[2,4,6,8,10,12,14,16,18,20,22,24,26,28,30,-1,-1,-1,-1,-1,-1,-1,-1,-1,-1,-1,-1,-1,-1,-1,-1],"split_conditions":[1.017E3,2.595708E1,1.796011E1,4.560107E1,1.8E0,2.990033E1,1.8E0,6.13097E0,1.225479E1,9E-1,3.5847845E2,7.25704E0,1E0,1.2E0,1.371721E1,2.1424866E-3,3.0535515E-2,-1.0300699E-3,1.384306E-2,1.4200164E-2,4.6099994E-2,-5.3478074E-3,2.546533E-2,1.4600347E-2,-1.9660575E-2,2.3483612E-2,-8.914547E-3,-1.6057821E-2,-3.8625402E-3,-5.894229E-3,-3.4832083E-2],"split_indices":[5,6,4,4,2,0,2,4,3,1,7,0,9,1,6,0,0,0,0,0,0,0,0,0,0,0,0,0,0,0,0],"split_type":[0,0,0,0,0,0,0,0,0,0,0,0,0,0,0,0,0,0,0,0,0,0,0,0,0,0,0,0,0,0,0],"sum_hessian":[2.24E2,9.2E1,1.32E2,3.7E1,5.5E1,2E1,1.12E2,1.1E1,2.6E1,3.1E1,2.4E1,1.2E1,8E0,1.04E2,8E0,1E0,1E1,1.7E1,9E0,1.2E1,1.9E1,8E0,1.6E1,2E0,1E1,5E0,3E0,8.3E1,2.1E1,2E0,6E0],"tree_param":{"num_deleted":"0","num_feature":"10","num_nodes":"31","size_leaf_vector":"1"}},{"base_weights":[2.0480193E-2,5.0495327E-1,-3.1844068E-1,7.9442734E-1,3.984914E-1,-5.500584E-1,-2.67579E-1,1.137127E0,2.8604344E-1,2.6722836E-1,6.240758E-1,-2.3580661E-2,-8.610134E-3,-1.4853184E-1,-4.3888074E-1,1.6565284E-2,6.510426E-2,-9.813035E-5,2.5309205E-2,7.7744895E-3,3.934928E-2,5.522247E-2,1.832663E-2,1.0764041E-2,-8.069628E-3,-1.9406166E-2,6.268415E-3],"categories":[],"categories_nodes":[],"categories_segments":[],"categories_sizes":[],"default_left":[0,0,0,0,0,0,0,0,0,0,0,0,0,0,0,0,0,0,0,0,0,0,0,0,0,0,0],"id":39,"left_children":[1,3,5,7,9,11,13,15,17,19,21,-1,-1,23,25,-1,-1,-1,-1,-1,-1,-1,-1,-1,-1,-1,-1],"loss_changes":[3.710536E1,2.5494976E0,1.4196196E0,3.8560858E0,1.9059935E0,1.7695189E-1,2.198433E0,4.290556E0,1.1017499E0,2.2104058E0,2.505188E0,0E0,0E0,1.5431467E0,1.3162308E0,0E0,0E0,0E0,0E0,0E0,0E0,0E0,0E0,0E0,0E0,0E0,0E0],"parents":[2147483647,0,0,1,1,2,2,3,3,4,4,5,5,6,6,7,7,8,8,9,9,10,10,13,13,14,14],"right_children":[2,4,6,8,10,12,14,16,18,20,22,-1,-1,24,26,-1,-1,-1,-1,-1,-1,-1,-1,-1,-1,-1,-1],"split_conditions":[1.017E3,8.31094E0,1.02E3,1.2E0,1.374378E1,6.084E1,1.1196091E2,1.1169746E2,7.10414E0,5.55875E2,1.18824E1,-2.3580661E-2,-8.610134E-3,9E0,3.5723694E2,1.6565284E-2,6.510426E-2,-9.813035E-5,2.5309205E-2,7.7744895E-3,3.934928E-2,5.522247E-2,1.832663E-2,1.0764041E-2,-8.069628E-3,-1.9406166E-2,6.268415E-3],"split_indices":[5,0,5,1,0,0,4,7,0,7,3,0,0,0,4,0,0,0,0,0,0,0,0,0,0,0,0],"split_type":[0,0,0,0,0,0,0,0,0,0,0,0,0,0,0,0,0,0,0,0,0,0,0,0,0,0,0],"sum_hessian":[2.24E2,9.2E1,1.32E2,2.3E1,6.9E1,2.2E1,1.1E2,1.3E1,1E1,4.5E1,2.4E1,1.9E1,3E0,6.6E1,4.4E1,6E0,7E0,6E0,4E0,4.2E1,3E0,3E0,2.1E1,7E0,5.9E1,4.1E1,3E0],"tree_param":{"num_deleted":"0","num_feature":"10","num_nodes":"27","size_leaf_vector":"1"}},{"base_weights":[2.0482954E-2,5.050986E-1,-2.9448986E-1,7.388326E-1,3.913946E-1,-2.9456371E-2,-2.6862782E-1,5.908463E-1,7.10041E-2,-4.3879414E-1,4.562144E-1,1.5412542E-1,-3.165085E-1,3.1770296E-2,1.3555669E-3,4.6901703E-5,-2.1963157E-2,3.343805E-2,1.3117438E-2,1.4954906E-2,-3.104955E-2,7.3451167E-3,-1.3610538E-2],"categories":[],"categories_nodes":[],"categories_segments":[],"categories_sizes":[],"default_left":[0,0,0,0,0,0,0,0,0,0,0,0,0,0,0,0,0,0,0,0,0,0,0],"id":40,"left_children":[1,3,5,7,9,-1,11,13,-1,15,17,19,21,-1,-1,-1,-1,-1,-1,-1,-1,-1,-1],"loss_changes":[3.449292E1,2.0761318E0,1.3679438E0,3.2450924E0,3.5365705E0,0E0,2.7004461E0,2.9186554E0,0E0,2.4325198E-1,2.5511599E0,3.152444E0,1.464406E0,0E0,0E0,0E0,0E0,0E0,0E0,0E0,0E0,0E0,0E0],"parents":[2147483647,0,0,1,1,2,2,3,3,4,4,6,6,7,7,9,9,10,10,11,11,12,12],"right_children":[2,4,6,8,10,-1,12,14,-1,16,18,20,22,-1,-1,-1,-1,-1,-1,-1,-1,-1,-1],"split_conditions":[1.016E3,2.0913167E2,1.367759E2,1.55012E1,2.2106233E2,-2.9456371E-2,7.72637E0,9.89332E0,7.10041E-2,1.332788E1,2.1567673E2,3.2616312E2,1.179242E1,3.1770296E-2,1.3555669E-3,4.6901703E-5,-2.1963157E-2,3.343805E-2,1.3117438E-2,1.4954906E-2,-3.104955E-2,7.3451167E-3,-1.3610538E-2],"split_indices":[5,7,7,0,7,0,0,3,0,0,4,4,6,0,0,0,0,0,0,0,0,0,0],"split_type":[0,0,0,0,0,0,0,0,0,0,0,0,0,0,0,0,0,0,0,0,0,0,0],"sum_hessian":[2.24E2,8.8E1,1.36E2,2.7E1,6.1E1,6E0,1.3E2,2.5E1,2E0,4E0,5.7E1,1.3E1,1.17E2,1.8E1,7E0,1E0,3E0,1.3E1,4.4E1,1.1E1,2E0,5E0,1.12E2],"tree_param":{"num_deleted":"0","num_feature":"10","num_nodes":"23","size_leaf_vector":"1"}},{"base_weights":[2.0005738E-2,-3.0379033E-1,4.5827118E-1,-2.665458E-1,-6.478161E-1,2.5347525E-1,6.000277E-1,-1.645636E-1,-4.1396606E-1,-2.8965496E-2,-7.0989225E-3,-1.207007E-1,4.315105E-1,7.8271353E-1,3.421887E-1,1.8080177E-2,-7.5454805E-3,-1.8239323E-2,6.4886855E-3,-1.20985145E-2,1.0678551E-2,2.451103E-2,1.7582206E-3,6.608999E-2,2.3979403E-2,-5.9677125E-3,2.3288123E-2],"categories":[],"categories_nodes":[],"categories_segments":[],"categories_sizes":[],"default_left":[0,0,0,0,0,0,0,0,0,0,0,0,0,0,0,0,0,0,0,0,0,0,0,0,0,0,0],"id":41,"left_children":[1,3,5,7,9,11,13,15,17,-1,-1,19,21,23,25,-1,-1,-1,-1,-1,-1,-1,-1,-1,-1,-1,-1],"loss_changes":[3.2068657E1,1.4930277E0,2.6348991E0,1.7209511E0,3.0225134E-1,2.7833612E0,2.3699627E0,1.1539543E0,1.2360249E0,0E0,0E0,1.0672249E0,1.9400716E0,4.1078587E0,3.0353265E0,0E0,0E0,0E0,0E0,0E0,0E0,0E0,0E0,0E0,0E0,0E0,0E0],"parents":[2147483647,0,0,1,1,2,2,3,3,4,4,5,5,6,6,7,7,8,8,11,11,12,12,13,13,14,14],"right_children":[2,4,6,8,10,12,14,16,18,-1,-1,20,22,24,26,-1,-1,-1,-1,-1,-1,-1,-1,-1,-1,-1,-1],"split_conditions":[2.360017E1,2.119814E1,2.595708E1,1.1196091E2,2.295708E1,1.2E0,1.8E0,1.156152E1,3.5723694E2,-2.8965496E-2,-7.0989225E-3,3.148262E2,3.0522107E2,2.717684E1,3.5847845E2,1.8080177E-2,-7.5454805E-3,-1.8239323E-2,6.4886855E-3,-1.20985145E-2,1.0678551E-2,2.451103E-2,1.7582206E-3,6.608999E-2,2.3979403E-2,-5.9677125E-3,2.3288123E-2],"split_indices":[6,6,6,4,6,1,2,6,4,0,0,4,4,6,7,0,0,0,0,0,0,0,0,0,0,0,0],"split_type":[0,0,0,0,0,0,0,0,0,0,0,0,0,0,0,0,0,0,0,0,0,0,0,0,0,0,0],"sum_hessian":[2.24E2,1.29E2,9.5E1,1.18E2,1.1E1,4E1,5.5E1,7.1E1,4.7E1,9E0,2E0,1.3E1,2.7E1,3.1E1,2.4E1,2E0,6.9E1,4.4E1,3E0,9E0,4E0,1.8E1,9E0,4E0,2.7E1,8E0,1.6E1],"tree_param":{"num_deleted":"0","num_feature":"10","num_nodes":"27","size_leaf_vector":"1"}},{"base_weights":[1.9627538E-2,-2.9192555E-1,4.413179E-1,-2.558943E-1,-6.2490845E-1,2.4394208E-1,5.779445E-1,-3.403218E-1,-9.300759E-2,-2.792272E-2,-6.9096116E-3,-1.1597415E-1,4.1518798E-1,9.386822E-1,4.4705448E-1,-1.1359254E-2,-2.9628476E-2,7.967713E-3,-8.124688E-3,-1.1662975E-2,1.0336844E-2,2.8575003E-2,7.1829692E-3,-3.1832599E-3,4.8945006E-2,1.532344E-2,6.26746E-2],"categories":[],"categories_nodes":[],"categories_segments":[],"categories_sizes":[],"default_left":[0,0,0,0,0,0,0,0,0,0,0,0,0,0,0,0,0,0,0,0,0,0,0,0,0,0,0],"id":42,"left_children":[1,3,5,7,9,11,13,15,17,-1,-1,19,21,23,25,-1,-1,-1,-1,-1,-1,-1,-1,-1,-1,-1,-1],"loss_changes":[2.9689093E1,1.3998032E0,2.4478264E0,1.6048503E0,2.7638102E-1,2.5751522E0,2.2245083E0,1.5491896E0,1.3917705E0,0E0,0E0,9.957636E-1,1.8455095E0,4.159438E0,2.4799557E0,0E0,0E0,0E0,0E0,0E0,0E0,0E0,0E0,0E0,0E0,0E0,0E0],"parents":[2147483647,0,0,1,1,2,2,3,3,4,4,5,5,6,6,7,7,8,8,11,11,12,12,13,13,14,14],"right_children":[2,4,6,8,10,12,14,16,18,-1,-1,20,22,24,26,-1,-1,-1,-1,-1,-1,-1,-1,-1,-1,-1,-1],"split_conditions":[2.360017E1,2.119814E1,2.595708E1,1.396982E1,2.295708E1,1.2E0,5.60768E0,1.8E0,1.689144E1,-2.792272E-2,-6.9096116E-3,3.148262E2,2.557242E1,2.707357E1,2.053254E1,-1.1359254E-2,-2.9628476E-2,7.967713E-3,-8.124688E-3,-1.1662975E-2,1.0336844E-2,2.8575003E-2,7.1829692E-3,-3.1832599E-3,4.8945006E-2,1.532344E-2,6.26746E-2],"split_indices":[6,6,6,3,6,1,3,2,3,0,0,4,6,6,0,0,0,0,0,0,0,0,0,0,0,0,0],"split_type":[0,0,0,0,0,0,0,0,0,0,0,0,0,0,0,0,0,0,0,0,0,0,0,0,0,0,0],"sum_hessian":[2.24E2,1.29E2,9.5E1,1.18E2,1.1E1,4E1,5.5E1,7.7E1,4.1E1,9E0,2E0,1.3E1,2.7E1,1.3E1,4.2E1,6.9E1,8E0,1.1E1,3E1,9E0,4E0,1.1E1,1.6E1,3E0,1E1,4.1E1,1E0],"tree_param":{"num_deleted":"0","num_feature":"10","num_nodes":"27","size_leaf_vector":"1"}},{"base_weights":[1.9207729E-2,-2.808331E-1,4.253129E-1,-2.4600439E-1,-6.028149E-1,2.3502427E-1,5.570365E-1,-1.4966518E-1,-3.853881E-1,-2.6917508E-2,-6.7253616E-3,-1.11429624E-1,3.998575E-1,6.189027E-1,-6.166522E-2,-1.7123578E-2,-3.6975865E-3,-2.9349474E-2,-1.1894996E-2,-1.1243092E-2,1.00060655E-2,2.2859624E-2,1.3507537E-3,2.0901151E-2,6.482656E-2,1.1274057E-2,-1.21554565E-2],"categories":[],"categories_nodes":[],"categories_segments":[],"categories_sizes":[],"default_left":[0,0,0,0,0,0,0,0,0,0,0,0,0,0,0,0,0,0,0,0,0,0,0,0,0,0,0],"id":43,"left_children":[1,3,5,7,9,11,13,15,17,-1,-1,19,21,23,25,-1,-1,-1,-1,-1,-1,-1,-1,-1,-1,-1,-1],"loss_changes":[2.753527E1,1.3095512E0,2.2753716E0,1.5402665E0,2.526288E-1,2.3859472E0,2.1816597E0,1.1076014E0,1.2534518E0,0E0,0E0,9.290918E-1,1.7400236E0,4.0768833E0,5.848929E-1,0E0,0E0,0E0,0E0,0E0,0E0,0E0,0E0,0E0,0E0,0E0,0E0],"parents":[2147483647,0,0,1,1,2,2,3,3,4,4,5,5,6,6,7,7,8,8,11,11,12,12,13,13,14,14],"right_children":[2,4,6,8,10,12,14,16,18,-1,-1,20,22,24,26,-1,-1,-1,-1,-1,-1,-1,-1,-1,-1,-1,-1],"split_conditions":[2.360017E1,2.119814E1,2.595708E1,1.1196091E2,2.295708E1,1.2E0,2.850873E1,1.02E3,1.7872694E2,-2.6917508E-2,-6.7253616E-3,3.148262E2,3.0522107E2,2.828109E1,9.72253E0,-1.7123578E-2,-3.6975865E-3,-2.9349474E-2,-1.1894996E-2,-1.1243092E-2,1.00060655E-2,2.2859624E-2,1.3507537E-3,2.0901151E-2,6.482656E-2,1.1274057E-2,-1.21554565E-2],"split_indices":[6,6,6,4,6,1,6,5,4,0,0,4,4,6,0,0,0,0,0,0,0,0,0,0,0,0,0],"split_type":[0,0,0,0,0,0,0,0,0,0,0,0,0,0,0,0,0,0,0,0,0,0,0,0,0,0,0],"sum_hessian":[2.24E2,1.29E2,9.5E1,1.18E2,1.1E1,4E1,5.5E1,7.1E1,4.7E1,9E0,2E0,1.3E1,2.7E1,5E1,5E0,1.1E1,6E1,8E0,3.9E1,9E0,4E0,1.8E1,9E0,4.7E1,3E0,2E0,3E0],"tree_param":{"num_deleted":"0","num_feature":"10","num_nodes":"27","size_leaf_vector":"1"}},{"base_weights":[1.8493297E-2,-2.7033606E-1,4.0942374E-1,-2.8612652E-1,2.9859567E-1,6.473318E-1,3.0694768E-1,-2.4279974E-1,-5.9344655E-1,-1.3033898E-1,3.170799E-2,5.0753015E-1,6.5726735E-2,-5.298168E-1,3.805983E-1,-1.0953006E-2,3.9442938E-2,-2.4742274E-2,-4.838047E-3,-8.843841E-3,1.0235023E-3,2.7687842E-2,2.20294E-4,-2.3420364E-2,-5.0271032E-3,3.1250913E-2,9.679939E-3],"categories":[],"categories_nodes":[],"categories_segments":[],"categories_sizes":[],"default_left":[0,0,0,0,0,0,0,0,0,0,0,0,0,0,0,0,0,0,0,0,0,0,0,0,0,0,0],"id":44,"left_children":[1,3,5,7,9,11,13,15,17,19,-1,21,-1,23,25,-1,-1,-1,-1,-1,-1,-1,-1,-1,-1,-1,-1],"loss_changes":[2.5515923E1,1.2533178E0,2.1417713E0,1.5469398E0,9.5107317E-1,3.06419E0,4.4539943E0,4.578282E0,1.03152275E-1,4.8111606E-2,0E0,2.4065561E0,0E0,6.1459422E-2,3.3650713E0,0E0,0E0,0E0,0E0,0E0,0E0,0E0,0E0,0E0,0E0,0E0,0E0],"parents":[2147483647,0,0,1,1,2,2,3,3,4,4,5,5,6,6,7,7,8,8,9,9,11,11,13,13,14,14],"right_children":[2,4,6,8,10,12,14,16,18,20,-1,22,-1,24,26,-1,-1,-1,-1,-1,-1,-1,-1,-1,-1,-1,-1],"split_conditions":[2.360017E1,1.5248203E3,2.0913167E2,6.956945E2,3.565296E1,1.55012E1,9E-1,6.70216E2,3.925863E1,3.348788E1,3.170799E-2,9.89332E0,6.5726735E-2,2.916E1,2.1567673E2,-1.0953006E-2,3.9442938E-2,-2.4742274E-2,-4.838047E-3,-8.843841E-3,1.0235023E-3,2.7687842E-2,2.20294E-4,-2.3420364E-2,-5.0271032E-3,3.1250913E-2,9.679939E-3],"split_indices":[6,7,7,7,0,0,1,7,0,0,0,3,0,0,4,0,0,0,0,0,0,0,0,0,0,0,0],"split_type":[0,0,0,0,0,0,0,0,0,0,0,0,0,0,0,0,0,0,0,0,0,0,0,0,0,0,0],"sum_hessian":[2.24E2,1.29E2,9.5E1,1.26E2,3E0,2.7E1,6.8E1,1.12E2,1.4E1,2E0,1E0,2.5E1,2E0,5E0,6.3E1,1.1E2,2E0,1.3E1,1E0,1E0,1E0,1.8E1,7E0,4E0,1E0,1.5E1,4.8E1],"tree_param":{"num_deleted":"0","num_feature":"10","num_nodes":"27","size_leaf_vector":"1"}},{"base_weights":[1.83265E-2,4.193839E-1,-2.4234822E-1,6.247825E-1,3.19859E-1,-2.4185857E-2,-2.1519293E-1,4.883022E-1,6.397404E-2,-4.4263935E-1,3.8007683E-1,1.7641592E-1,-2.6060095E-1,2.663861E-2,2.1258353E-4,5.524635E-4,-2.2408199E-2,2.864017E-2,1.0684797E-2,1.5377591E-2,-2.8579393E-2,7.886632E-3,-1.1319893E-2],"categories":[],"categories_nodes":[],"categories_segments":[],"categories_sizes":[],"default_left":[0,0,0,0,0,0,0,0,0,0,0,0,0,0,0,0,0,0,0,0,0,0,0],"id":45,"left_children":[1,3,5,7,9,-1,11,13,-1,15,17,19,21,-1,-1,-1,-1,-1,-1,-1,-1,-1,-1],"loss_changes":[2.3624382E1,1.6195202E0,1.2177334E0,2.9432964E0,3.0150275E0,0E0,2.3398757E0,2.2274966E0,0E0,2.76052E-1,2.0095701E0,2.8692772E0,1.2450671E0,0E0,0E0,0E0,0E0,0E0,0E0,0E0,0E0,0E0,0E0],"parents":[2147483647,0,0,1,1,2,2,3,3,4,4,6,6,7,7,9,9,10,10,11,11,12,12],"right_children":[2,4,6,8,10,-1,12,14,-1,16,18,20,22,-1,-1,-1,-1,-1,-1,-1,-1,-1,-1],"split_conditions":[1.016E3,2.0913167E2,1.399013E2,1.55012E1,2.2106233E2,-2.4185857E-2,7.72637E0,9.89332E0,6.397404E-2,1.332788E1,2.1567673E2,3.2616312E2,1.179242E1,2.663861E-2,2.1258353E-4,5.524635E-4,-2.2408199E-2,2.864017E-2,1.0684797E-2,1.5377591E-2,-2.8579393E-2,7.886632E-3,-1.1319893E-2],"split_indices":[5,7,7,0,7,0,0,3,0,0,4,4,6,0,0,0,0,0,0,0,0,0,0],"split_type":[0,0,0,0,0,0,0,0,0,0,0,0,0,0,0,0,0,0,0,0,0,0,0],"sum_hessian":[2.24E2,8.8E1,1.36E2,2.7E1,6.1E1,8E0,1.28E2,2.5E1,2E0,4E0,5.7E1,1.3E1,1.15E2,1.8E1,7E0,1E0,3E0,1.3E1,4.4E1,1.1E1,2E0,5E0,1.1E2],"tree_param":{"num_deleted":"0","num_feature":"10","num_nodes":"23","size_leaf_vector":"1"}},{"base_weights":[1.7893376E-2,-2.4984942E-1,3.8027537E-1,-2.1636435E-1,-5.61089E-1,2.020864E-1,5.039445E-1,-2.9666075E-1,-6.209092E-2,-2.5146648E-2,-5.952072E-3,-1.1284603E-1,3.5233524E-1,2.504871E-1,6.605791E-1,-9.691302E-3,-2.7465602E-2,8.551747E-3,-6.6752806E-3,-1.0916207E-2,9.193657E-3,2.5540736E-2,5.1839203E-3,2.5215806E-2,-3.6096747E-3,3.9107613E-2,1.297545E-2],"categories":[],"categories_nodes":[],"categories_segments":[],"categories_sizes":[],"default_left":[0,0,0,0,0,0,0,0,0,0,0,0,0,0,0,0,0,0,0,0,0,0,0,0,0,0,0],"id":46,"left_children":[1,3,5,7,9,11,13,15,17,-1,-1,19,21,23,25,-1,-1,-1,-1,-1,-1,-1,-1,-1,-1,-1,-1],"loss_changes":[2.1925673E1,1.2334442E0,2.0136623E0,1.4557047E0,2.4078822E-1,1.9798073E0,2.057745E0,1.4877367E0,1.2499089E0,0E0,0E0,8.306285E-1,1.7020712E0,3.0341394E0,3.3076096E0,0E0,0E0,0E0,0E0,0E0,0E0,0E0,0E0,0E0,0E0,0E0,0E0],"parents":[2147483647,0,0,1,1,2,2,3,3,4,4,5,5,6,6,7,7,8,8,11,11,12,12,13,13,14,14],"right_children":[2,4,6,8,10,12,14,16,18,-1,-1,20,22,24,26,-1,-1,-1,-1,-1,-1,-1,-1,-1,-1,-1,-1],"split_conditions":[2.360017E1,2.119814E1,2.595708E1,1.396982E1,2.295708E1,1.2E0,2.608386E2,1.8E0,1.689144E1,-2.5146648E-2,-5.952072E-3,3.148262E2,2.557242E1,2.749152E1,1.8E0,-9.691302E-3,-2.7465602E-2,8.551747E-3,-6.6752806E-3,-1.0916207E-2,9.193657E-3,2.5540736E-2,5.1839203E-3,2.5215806E-2,-3.6096747E-3,3.9107613E-2,1.297545E-2],"split_indices":[6,6,6,3,6,1,4,2,3,0,0,4,6,6,2,0,0,0,0,0,0,0,0,0,0,0,0],"split_type":[0,0,0,0,0,0,0,0,0,0,0,0,0,0,0,0,0,0,0,0,0,0,0,0,0,0,0],"sum_hessian":[2.24E2,1.29E2,9.5E1,1.18E2,1.1E1,4E1,5.5E1,7.7E1,4.1E1,9E0,2E0,1.3E1,2.7E1,2.2E1,3.3E1,6.9E1,8E0,1.1E1,3E1,9E0,4E0,1.1E1,1.6E1,1E1,1.2E1,1.6E1,1.7E1],"tree_param":{"num_deleted":"0","num_feature":"10","num_nodes":"27","size_leaf_vector":"1"}},{"base_weights":[1.7339049E-2,-2.4036598E-1,3.66134E-1,-2.0800614E-1,-5.412371E-1,3.796941E-2,4.2643645E-1,-1.1714861E-1,-3.39959E-1,-2.4241375E-2,-5.793355E-3,4.5631924E-1,-5.650974E-1,6.8612695E-1,2.6022387E-1,-1.5414167E-2,-2.4986553E-3,-2.682634E-2,-1.0282104E-2,1.9165857E-3,4.22779E-2,-2.4877261E-2,-4.4818497E-3,5.0963864E-2,1.8461937E-2,2.3744313E-2,6.1481223E-3],"categories":[],"categories_nodes":[],"categories_segments":[],"categories_sizes":[],"default_left":[0,0,0,0,0,0,0,0,0,0,0,0,0,0,0,0,0,0,0,0,0,0,0,0,0,0,0],"id":47,"left_children":[1,3,5,7,9,11,13,15,17,-1,-1,19,21,23,25,-1,-1,-1,-1,-1,-1,-1,-1,-1,-1,-1,-1],"loss_changes":[2.0312403E1,1.1531177E0,1.883565E0,1.3868542E0,2.2045588E-1,4.2945514E0,3.3177233E0,1.0318859E0,1.1436267E0,0E0,0E0,2.40235E0,1.10556364E-1,3.5053482E0,1.7198889E0,0E0,0E0,0E0,0E0,0E0,0E0,0E0,0E0,0E0,0E0,0E0,0E0],"parents":[2147483647,0,0,1,1,2,2,3,3,4,4,5,5,6,6,7,7,8,8,11,11,12,12,13,13,14,14],"right_children":[2,4,6,8,10,12,14,16,18,-1,-1,20,22,24,26,-1,-1,-1,-1,-1,-1,-1,-1,-1,-1,-1,-1],"split_conditions":[2.360017E1,2.119814E1,9E-1,1.1196091E2,2.295708E1,1.3169992E2,2.8151334E2,1.02E3,1.7872694E2,-2.4241375E-2,-5.793355E-3,1.0657128E2,2.916E1,5.60768E0,9.646018E1,-1.5414167E-2,-2.4986553E-3,-2.682634E-2,-1.0282104E-2,1.9165857E-3,4.22779E-2,-2.4877261E-2,-4.4818497E-3,5.0963864E-2,1.8461937E-2,2.3744313E-2,6.1481223E-3],"split_indices":[6,6,1,4,6,7,7,5,4,0,0,7,0,3,4,0,0,0,0,0,0,0,0,0,0,0,0],"split_type":[0,0,0,0,0,0,0,0,0,0,0,0,0,0,0,0,0,0,0,0,0,0,0,0,0,0,0],"sum_hessian":[2.24E2,1.29E2,9.5E1,1.18E2,1.1E1,1.5E1,8E1,7.1E1,4.7E1,9E0,2E0,9E0,6E0,3E1,5E1,1.1E1,6E1,8E0,3.9E1,6E0,3E0,5E0,1E0,7E0,2.3E1,1.1E1,3.9E1],"tree_param":{"num_deleted":"0","num_feature":"10","num_nodes":"27","size_leaf_vector":"1"}},{"base_weights":[1.6774802E-2,3.75019E-1,-2.1607563E-1,7.878789E-1,3.301666E-1,-2.2270568E-2,-1.9063166E-1,1.1302823E0,-6.3821664E-3,3.5886505E-1,-9.315809E-2,1.8106167E-1,-2.3384783E-1,8.215599E-3,6.1655235E-2,1.2722092E-2,5.03825E-2,9.128621E-3,-1.2435951E-2,1.5211455E-2,-2.7047642E-2,7.2409925E-3,-1.0324917E-2],"categories":[],"categories_nodes":[],"categories_segments":[],"categories_sizes":[],"default_left":[0,0,0,0,0,0,0,0,0,0,0,0,0,0,0,0,0,0,0,0,0,0,0],"id":48,"left_children":[1,3,5,7,9,-1,11,13,-1,15,17,19,21,-1,-1,-1,-1,-1,-1,-1,-1,-1,-1],"loss_changes":[1.8849928E1,1.387949E0,1.0814438E0,2.7755756E0,1.0296307E0,0E0,2.114489E0,1.9647474E0,0E0,2.4299088E0,4.9080867E-1,2.6481488E0,1.2149711E0,0E0,0E0,0E0,0E0,0E0,0E0,0E0,0E0,0E0,0E0],"parents":[2147483647,0,0,1,1,2,2,3,3,4,4,6,6,7,7,9,9,10,10,11,11,12,12],"right_children":[2,4,6,8,10,-1,12,14,-1,16,18,20,22,-1,-1,-1,-1,-1,-1,-1,-1,-1,-1],"split_conditions":[1.016E3,4.10982E0,1.399013E2,1.2E0,2.850873E1,-2.2270568E-2,7.72637E0,4.73704E0,-6.3821664E-3,2.828109E1,9.72253E0,3.2616312E2,1.6459215E2,8.215599E-3,6.1655235E-2,1.2722092E-2,5.03825E-2,9.128621E-3,-1.2435951E-2,1.5211455E-2,-2.7047642E-2,7.2409925E-3,-1.0324917E-2],"split_indices":[5,3,7,1,6,0,0,0,0,6,0,4,7,0,0,0,0,0,0,0,0,0,0],"split_type":[0,0,0,0,0,0,0,0,0,0,0,0,0,0,0,0,0,0,0,0,0,0,0],"sum_hessian":[2.24E2,8.8E1,1.36E2,7E0,8.1E1,8E0,1.28E2,5E0,2E0,7.6E1,5E0,1.3E1,1.15E2,2E0,3E0,7.4E1,2E0,2E0,3E0,1.1E1,2E0,6E0,1.09E2],"tree_param":{"num_deleted":"0","num_feature":"10","num_nodes":"23","size_leaf_vector":"1"}},{"base_weights":[1.6486265E-2,-2.2294305E-1,3.4054172E-1,-2.3800269E-1,3.109362E-1,1.7455564E-1,4.5598617E-1,-1.9558181E-1,-5.4170644E-1,-1.0718632E-1,3.1306077E-2,-1.2200471E-1,3.166017E-1,2.132864E-1,6.0675406E-1,-9.003623E-3,3.8457476E-2,-2.2571841E-2,-4.5090485E-3,-8.0505945E-3,1.6194152E-3,-1.078305E-2,7.901573E-3,2.3682326E-2,4.141527E-3,2.2762153E-2,-4.1661686E-3,3.6045235E-2,1.1800919E-2],"categories":[],"categories_nodes":[],"categories_segments":[],"categories_sizes":[],"default_left":[0,0,0,0,0,0,0,0,0,0,0,0,0,0,0,0,0,0,0,0,0,0,0,0,0,0,0,0,0],"id":49,"left_children":[1,3,5,7,9,11,13,15,17,19,-1,21,23,25,27,-1,-1,-1,-1,-1,-1,-1,-1,-1,-1,-1,-1,-1,-1],"loss_changes":[1.7533306E1,1.1192074E0,1.7599735E0,1.530241E0,8.7282944E-1,1.7657613E0,1.9197016E0,4.0744805E0,8.17461E-2,4.9826495E-2,0E0,7.134304E-1,1.5820115E0,2.656775E0,2.8542042E0,0E0,0E0,0E0,0E0,0E0,0E0,0E0,0E0,0E0,0E0,0E0,0E0,0E0,0E0],"parents":[2147483647,0,0,1,1,2,2,3,3,4,4,5,5,6,6,7,7,8,8,9,9,11,11,12,12,13,13,14,14],"right_children":[2,4,6,8,10,12,14,16,18,20,-1,22,24,26,28,-1,-1,-1,-1,-1,-1,-1,-1,-1,-1,-1,-1,-1,-1],"split_conditions":[2.360017E1,1.5248203E3,2.595708E1,6.956945E2,3.565296E1,1.2E0,2.608386E2,6.70216E2,3.925863E1,3.348788E1,3.1306077E-2,3.148262E2,2.557242E1,2.749152E1,1.8E0,-9.003623E-3,3.8457476E-2,-2.2571841E-2,-4.5090485E-3,-8.0505945E-3,1.6194152E-3,-1.078305E-2,7.901573E-3,2.3682326E-2,4.141527E-3,2.2762153E-2,-4.1661686E-3,3.6045235E-2,1.1800919E-2],"split_indices":[6,7,6,7,0,1,4,7,0,0,0,4,6,6,2,0,0,0,0,0,0,0,0,0,0,0,0,0,0],"split_type":[0,0,0,0,0,0,0,0,0,0,0,0,0,0,0,0,0,0,0,0,0,0,0,0,0,0,0,0,0],"sum_hessian":[2.24E2,1.29E2,9.5E1,1.26E2,3E0,4E1,5.5E1,1.12E2,1.4E1,2E0,1E0,1.3E1,2.7E1,2.2E1,3.3E1,1.1E2,2E0,1.3E1,1E0,1E0,1E0,9E0,4E0,1.1E1,1.6E1,1E1,1.2E1,1.6E1,1.7E1],"tree_param":{"num_deleted":"0","num_feature":"10","num_nodes":"29","size_leaf_vector":"1"}},{"base_weights":[1.6354078E-2,-2.1381575E-1,3.2787204E-1,-1.8271908E-1,-5.04373E-1,1.2801409E-2,3.860604E-1,-1.365261E-1,-4.343283E-1,-2.267287E-2,-5.1234434E-3,4.0974474E-1,-5.560893E-1,6.28366E-1,2.312068E-1,-2.115861E-2,-3.8999894E-3,-3.194146E-2,-9.312893E-3,7.4006215E-4,3.9679363E-2,-2.4627483E-2,-3.9700507E-3,4.6961073E-2,1.6811885E-2,2.1936113E-2,5.2107126E-3],"categories":[],"categories_nodes":[],"categories_segments":[],"categories_sizes":[],"default_left":[0,0,0,0,0,0,0,0,0,0,0,0,0,0,0,0,0,0,0,0,0,0,0,0,0,0,0],"id":50,"left_children":[1,3,5,7,9,11,13,15,17,-1,-1,19,21,23,25,-1,-1,-1,-1,-1,-1,-1,-1,-1,-1,-1,-1],"loss_changes":[1.6203062E1,1.0824385E0,1.7550688E0,1.3237903E0,2.0938182E-1,3.8409324E0,2.8939896E0,1.5106041E0,1.1351051E0,0E0,0E0,2.2596185E0,1.2947822E-1,3.026147E0,1.5614507E0,0E0,0E0,0E0,0E0,0E0,0E0,0E0,0E0,0E0,0E0,0E0,0E0],"parents":[2147483647,0,0,1,1,2,2,3,3,4,4,5,5,6,6,7,7,8,8,11,11,12,12,13,13,14,14],"right_children":[2,4,6,8,10,12,14,16,18,-1,-1,20,22,24,26,-1,-1,-1,-1,-1,-1,-1,-1,-1,-1,-1,-1],"split_conditions":[2.360017E1,2.119814E1,9E-1,1.8E0,2.295708E1,1.3169992E2,2.8151334E2,1.399013E2,1.24585E1,-2.267287E-2,-5.1234434E-3,1.0657128E2,2.916E1,5.60768E0,9.646018E1,-2.115861E-2,-3.8999894E-3,-3.194146E-2,-9.312893E-3,7.4006215E-4,3.9679363E-2,-2.4627483E-2,-3.9700507E-3,4.6961073E-2,1.6811885E-2,2.1936113E-2,5.2107126E-3],"split_indices":[6,6,1,2,6,7,7,7,3,0,0,7,0,3,4,0,0,0,0,0,0,0,0,0,0,0,0],"split_type":[0,0,0,0,0,0,0,0,0,0,0,0,0,0,0,0,0,0,0,0,0,0,0,0,0,0,0],"sum_hessian":[2.24E2,1.29E2,9.5E1,1.18E2,1.1E1,1.5E1,8E1,1.01E2,1.7E1,9E0,2E0,9E0,6E0,3E1,5E1,8E0,9.3E1,5E0,1.2E1,6E0,3E0,5E0,1E0,7E0,2.3E1,1.1E1,3.9E1],"tree_param":{"num_deleted":"0","num_feature":"10","num_nodes":"27","size_leaf_vector":"1"}},{"base_weights":[1.5737992E-2,-2.0598741E-1,3.158272E-1,-2.2058539E-1,3.089955E-1,1.3028264E-2,3.7174022E-1,-1.79318E-1,-5.1676077E-1,-1.0063839E-1,3.0757941E-2,3.9739686E-1,-5.379309E-1,5.045625E-1,1.16177395E-1,-8.316442E-3,3.753592E-2,-1.1789626E-2,-2.393187E-2,-7.8115845E-3,1.773281E-3,7.1468897E-4,3.8488977E-2,-2.3806559E-2,-3.8906478E-3,2.9941117E-2,1.1702858E-2,1.12779485E-2,-4.381488E-3],"categories":[],"categories_nodes":[],"categories_segments":[],"categories_sizes":[],"default_left":[0,0,0,0,0,0,0,0,0,0,0,0,0,0,0,0,0,0,0,0,0,0,0,0,0,0,0,0,0],"id":51,"left_children":[1,3,5,7,9,11,13,15,17,19,-1,21,23,25,27,-1,-1,-1,-1,-1,-1,-1,-1,-1,-1,-1,-1,-1,-1],"loss_changes":[1.5035971E1,1.0454621E0,1.6204767E0,1.4595785E0,8.3103526E-1,3.6021144E0,2.6908798E0,3.8064616E0,9.51972E-2,4.9822465E-2,0E0,2.1264958E0,1.1865473E-1,2.5220814E0,1.1159769E0,0E0,0E0,0E0,0E0,0E0,0E0,0E0,0E0,0E0,0E0,0E0,0E0,0E0,0E0],"parents":[2147483647,0,0,1,1,2,2,3,3,4,4,5,5,6,6,7,7,8,8,9,9,11,11,12,12,13,13,14,14],"right_children":[2,4,6,8,10,12,14,16,18,20,-1,22,24,26,28,-1,-1,-1,-1,-1,-1,-1,-1,-1,-1,-1,-1,-1,-1],"split_conditions":[2.360017E1,1.5248203E3,9E-1,6.956945E2,3.565296E1,1.3169992E2,2.944973E2,6.70216E2,1.93267E1,3.348788E1,3.0757941E-2,1.0657128E2,2.916E1,2.8151334E2,3.9716504E2,-8.316442E-3,3.753592E-2,-1.1789626E-2,-2.393187E-2,-7.8115845E-3,1.773281E-3,7.1468897E-4,3.8488977E-2,-2.3806559E-2,-3.8906478E-3,2.9941117E-2,1.1702858E-2,1.12779485E-2,-4.381488E-3],"split_indices":[6,7,1,7,0,7,4,7,4,0,0,7,0,7,7,0,0,0,0,0,0,0,0,0,0,0,0,0,0],"split_type":[0,0,0,0,0,0,0,0,0,0,0,0,0,0,0,0,0,0,0,0,0,0,0,0,0,0,0,0,0],"sum_hessian":[2.24E2,1.29E2,9.5E1,1.26E2,3E0,1.5E1,8E1,1.12E2,1.4E1,2E0,1E0,9E0,6E0,5.2E1,2.8E1,1.1E2,2E0,5E0,9E0,1E0,1E0,6E0,3E0,5E0,1E0,2.3E1,2.9E1,1.6E1,1.2E1],"tree_param":{"num_deleted":"0","num_feature":"10","num_nodes":"29","size_leaf_vector":"1"}},{"base_weights":[1.5456072E-2,3.229584E-1,-1.8442103E-1,7.0590484E-1,2.8165925E-1,-2.0110635E-2,-1.6078131E-1,1.0262975E0,-6.8072765E-3,7.184892E-2,3.395458E-1,1.824054E-1,-2.0081435E-1,6.703809E-3,5.6549985E-2,-1.3919709E-2,1.1695627E-2,1.209216E-2,5.3715535E-2,1.4858907E-2,-2.5386618E-2,1.6738052E-2,-8.613971E-3],"categories":[],"categories_nodes":[],"categories_segments":[],"categories_sizes":[],"default_left":[0,0,0,0,0,0,0,0,0,0,0,0,0,0,0,0,0,0,0,0,0,0,0],"id":52,"left_children":[1,3,5,7,9,-1,11,13,-1,15,17,19,21,-1,-1,-1,-1,-1,-1,-1,-1,-1,-1],"loss_changes":[1.3888662E1,1.2087421E0,9.5016956E-1,2.42019E0,9.7150946E-1,0E0,1.8089356E0,1.7592998E0,0E0,1.8610098E0,1.9854794E0,2.3984997E0,1.1342273E0,0E0,0E0,0E0,0E0,0E0,0E0,0E0,0E0,0E0,0E0],"parents":[2147483647,0,0,1,1,2,2,3,3,4,4,6,6,7,7,9,9,10,10,11,11,12,12],"right_children":[2,4,6,8,10,-1,12,14,-1,16,18,20,22,-1,-1,-1,-1,-1,-1,-1,-1,-1,-1],"split_conditions":[1.016E3,4.10982E0,1.399013E2,1.2E0,1.009E3,-2.0110635E-2,7.72637E0,4.73704E0,-6.8072765E-3,1.2E0,2.828109E1,3.2616312E2,1.5074603E2,6.703809E-3,5.6549985E-2,-1.3919709E-2,1.1695627E-2,1.209216E-2,5.3715535E-2,1.4858907E-2,-2.5386618E-2,1.6738052E-2,-8.613971E-3],"split_indices":[5,3,7,1,5,0,0,0,0,1,6,4,7,0,0,0,0,0,0,0,0,0,0],"split_type":[0,0,0,0,0,0,0,0,0,0,0,0,0,0,0,0,0,0,0,0,0,0,0],"sum_hessian":[2.24E2,8.8E1,1.36E2,7E0,8.1E1,8E0,1.28E2,5E0,2E0,1.8E1,6.3E1,1.3E1,1.15E2,2E0,3E0,6E0,1.2E1,6.2E1,1E0,1.1E1,2E0,2E0,1.13E2],"tree_param":{"num_deleted":"0","num_feature":"10","num_nodes":"23","size_leaf_vector":"1"}},{"base_weights":[1.527092E-2,-1.9029085E-1,2.9347673E-1,-1.6038539E-1,-4.709958E-1,1.4089788E-1,3.999456E-1,-2.3656441E-1,-1.5091328E-2,-2.124719E-2,-4.5353696E-3,-1.3558327E-1,2.741064E-1,1.6638142E-1,5.461818E-1,-7.4551622E-3,-2.40244E-2,9.699408E-3,-4.572462E-3,-1.654332E-2,6.78997E-4,2.1404363E-2,2.949811E-3,1.9899597E-2,-5.0634355E-3,3.267001E-2,1.0412059E-2],"categories":[],"categories_nodes":[],"categories_segments":[],"categories_sizes":[],"default_left":[0,0,0,0,0,0,0,0,0,0,0,0,0,0,0,0,0,0,0,0,0,0,0,0,0,0,0],"id":53,"left_children":[1,3,5,7,9,11,13,15,17,-1,-1,19,21,23,25,-1,-1,-1,-1,-1,-1,-1,-1,-1,-1,-1,-1],"loss_changes":[1.2923255E1,1.015759E0,1.5031586E0,1.3135648E0,1.9804215E-1,1.5471797E0,1.8218346E0,1.3130999E0,1.1011045E0,0E0,0E0,6.0077643E-1,1.4247925E0,2.2940664E0,2.417305E0,0E0,0E0,0E0,0E0,0E0,0E0,0E0,0E0,0E0,0E0,0E0,0E0],"parents":[2147483647,0,0,1,1,2,2,3,3,4,4,5,5,6,6,7,7,8,8,11,11,12,12,13,13,14,14],"right_children":[2,4,6,8,10,12,14,16,18,-1,-1,20,22,24,26,-1,-1,-1,-1,-1,-1,-1,-1,-1,-1,-1,-1],"split_conditions":[2.360017E1,2.119814E1,2.595708E1,1.396982E1,2.295708E1,1.2E0,2.608386E2,1.8E0,1.689144E1,-2.124719E-2,-4.5353696E-3,1.217575E1,2.557242E1,2.749152E1,1.8E0,-7.4551622E-3,-2.40244E-2,9.699408E-3,-4.572462E-3,-1.654332E-2,6.78997E-4,2.1404363E-2,2.949811E-3,1.9899597E-2,-5.0634355E-3,3.267001E-2,1.0412059E-2],"split_indices":[6,6,6,3,6,1,4,2,3,0,0,3,6,6,2,0,0,0,0,0,0,0,0,0,0,0,0],"split_type":[0,0,0,0,0,0,0,0,0,0,0,0,0,0,0,0,0,0,0,0,0,0,0,0,0,0,0],"sum_hessian":[2.24E2,1.29E2,9.5E1,1.18E2,1.1E1,4E1,5.5E1,7.7E1,4.1E1,9E0,2E0,1.3E1,2.7E1,2.2E1,3.3E1,6.9E1,8E0,1.1E1,3E1,4E0,9E0,1.1E1,1.6E1,1E1,1.2E1,1.6E1,1.7E1],"tree_param":{"num_deleted":"0","num_feature":"10","num_nodes":"27","size_leaf_vector":"1"}},{"base_weights":[1.472343E-2,-1.8308039E-1,2.824294E-1,-1.972541E-1,3.1270552E-1,-5.190134E-3,3.3575636E-1,-1.5708345E-1,-4.8672283E-1,-8.983453E-2,3.0406512E-2,3.5837603E-1,-5.238289E-1,4.6030673E-1,9.655199E-2,-7.3809233E-3,3.6421765E-2,-1.1033039E-2,-2.2583546E-2,-7.391624E-3,2.0015526E-3,-1.6087123E-4,3.6119126E-2,-2.3227302E-2,-3.6541366E-3,3.701495E-2,1.4282571E-2,1.0298839E-2,-4.852304E-3],"categories":[],"categories_nodes":[],"categories_segments":[],"categories_sizes":[],"default_left":[0,0,0,0,0,0,0,0,0,0,0,0,0,0,0,0,0,0,0,0,0,0,0,0,0,0,0,0,0],"id":54,"left_children":[1,3,5,7,9,11,13,15,17,19,-1,21,23,25,27,-1,-1,-1,-1,-1,-1,-1,-1,-1,-1,-1,-1,-1,-1],"loss_changes":[1.1966191E1,9.752097E-1,1.4741778E0,1.4003191E0,7.887668E-1,3.20468E0,2.3687887E0,3.4783862E0,9.0596676E-2,4.909218E-2,0E0,1.9772578E0,1.1906731E-1,2.2143602E0,1.0479078E0,0E0,0E0,0E0,0E0,0E0,0E0,0E0,0E0,0E0,0E0,0E0,0E0,0E0,0E0],"parents":[2147483647,0,0,1,1,2,2,3,3,4,4,5,5,6,6,7,7,8,8,9,9,11,11,12,12,13,13,14,14],"right_children":[2,4,6,8,10,12,14,16,18,20,-1,22,24,26,28,-1,-1,-1,-1,-1,-1,-1,-1,-1,-1,-1,-1,-1,-1],"split_conditions":[2.360017E1,1.5248203E3,9E-1,6.956945E2,3.565296E1,1.3169992E2,2.944973E2,6.70216E2,1.93267E1,3.348788E1,3.0406512E-2,1.0657128E2,2.916E1,5.60768E0,3.9716504E2,-7.3809233E-3,3.6421765E-2,-1.1033039E-2,-2.2583546E-2,-7.391624E-3,2.0015526E-3,-1.6087123E-4,3.6119126E-2,-2.3227302E-2,-3.6541366E-3,3.701495E-2,1.4282571E-2,1.0298839E-2,-4.852304E-3],"split_indices":[6,7,1,7,0,7,4,7,4,0,0,7,0,3,7,0,0,0,0,0,0,0,0,0,0,0,0,0,0],"split_type":[0,0,0,0,0,0,0,0,0,0,0,0,0,0,0,0,0,0,0,0,0,0,0,0,0,0,0,0,0],"sum_hessian":[2.24E2,1.29E2,9.5E1,1.26E2,3E0,1.5E1,8E1,1.12E2,1.4E1,2E0,1E0,9E0,6E0,5.2E1,2.8E1,1.1E2,2E0,5E0,9E0,1E0,1E0,6E0,3E0,5E0,1E0,8E0,4.4E1,1.6E1,1.2E1],"tree_param":{"num_deleted":"0","num_feature":"10","num_nodes":"29","size_leaf_vector":"1"}},{"base_weights":[1.4517767E-2,2.8902104E-1,-1.6391516E-1,6.468513E-1,2.5058615E-1,-2.0687649E-2,-1.4378655E-1,9.544589E-1,-7.3592374E-3,4.920392E-2,3.064561E-1,1.8257877E-1,-1.8128933E-1,5.8358507E-3,5.2890643E-2,-1.3963846E-2,1.0395532E-2,1.0811479E-2,5.1702175E-2,1.4543619E-2,-2.4093105E-2,9.212685E-3,-8.061608E-3],"categories":[],"categories_nodes":[],"categories_segments":[],"categories_sizes":[],"default_left":[0,0,0,0,0,0,0,0,0,0,0,0,0,0,0,0,0,0,0,0,0,0,0],"id":55,"left_children":[1,3,5,7,9,-1,11,13,-1,15,17,19,21,-1,-1,-1,-1,-1,-1,-1,-1,-1,-1],"loss_changes":[1.106797E1,1.0619407E0,8.998358E-1,2.2201643E0,9.075208E-1,0E0,1.6364877E0,1.5914574E0,0E0,1.6851224E0,1.933281E0,2.2080822E0,1.0299945E0,0E0,0E0,0E0,0E0,0E0,0E0,0E0,0E0,0E0,0E0],"parents":[2147483647,0,0,1,1,2,2,3,3,4,4,6,6,7,7,9,9,10,10,11,11,12,12],"right_children":[2,4,6,8,10,-1,12,14,-1,16,18,20,22,-1,-1,-1,-1,-1,-1,-1,-1,-1,-1],"split_conditions":[1.016E3,4.10982E0,1.367759E2,1.2E0,1.009E3,-2.0687649E-2,7.72637E0,4.73704E0,-7.3592374E-3,1.2E0,2.828109E1,3.2616312E2,1.179242E1,5.8358507E-3,5.2890643E-2,-1.3963846E-2,1.0395532E-2,1.0811479E-2,5.1702175E-2,1.4543619E-2,-2.4093105E-2,9.212685E-3,-8.061608E-3],"split_indices":[5,3,7,1,5,0,0,0,0,1,6,4,6,0,0,0,0,0,0,0,0,0,0],"split_type":[0,0,0,0,0,0,0,0,0,0,0,0,0,0,0,0,0,0,0,0,0,0,0],"sum_hessian":[2.24E2,8.8E1,1.36E2,7E0,8.1E1,6E0,1.3E2,5E0,2E0,1.8E1,6.3E1,1.3E1,1.17E2,2E0,3E0,6E0,1.2E1,6.2E1,1E0,1.1E1,2E0,5E0,1.12E2],"tree_param":{"num_deleted":"0","num_feature":"10","num_nodes":"23","size_leaf_vector":"1"}},{"base_weights":[1.4297863E-2,-1.691747E-1,2.6260135E-1,-1.4042786E-1,-4.4014964E-1,1.203447E-1,3.6206424E-1,-2.1378715E-1,-8.4565935E-4,-1.9926392E-2,-4.0026344E-3,-1.4163439E-1,2.4703622E-1,6.095294E-1,2.2880366E-1,-6.6295234E-3,-2.2549918E-2,9.826796E-3,-3.8497506E-3,-1.6302139E-2,2.1954346E-4,1.9839367E-2,2.2710687E-3,1.19321495E-2,4.936537E-2,2.0595498E-2,-3.375178E-3],"categories":[],"categories_nodes":[],"categories_segments":[],"categories_sizes":[],"default_left":[0,0,0,0,0,0,0,0,0,0,0,0,0,0,0,0,0,0,0,0,0,0,0,0,0,0,0],"id":56,"left_children":[1,3,5,7,9,11,13,15,17,-1,-1,19,21,23,25,-1,-1,-1,-1,-1,-1,-1,-1,-1,-1,-1,-1],"loss_changes":[1.02947235E1,9.5084786E-1,1.3147559E0,1.2183378E0,1.8689108E-1,1.3958005E0,1.7072692E0,1.2181575E0,1.0113633E0,0E0,0E0,5.499562E-1,1.2980517E0,3.3253222E0,3.4481168E0,0E0,0E0,0E0,0E0,0E0,0E0,0E0,0E0,0E0,0E0,0E0,0E0],"parents":[2147483647,0,0,1,1,2,2,3,3,4,4,5,5,6,6,7,7,8,8,11,11,12,12,13,13,14,14],